9.085974842309951782e-02,1.222371011972427368e-01,-8.116797357797622681e-02,-2.999230846762657166e-02,-6.326036155223846436e-02,1.105143572203814983e-03,5.408898368477821350e-02,1.822791993618011475e-02,-3.731237724423408508e-03,1.061560660600662231e-01,6.620927155017852783e-02,-4.865971580147743225e-02,-8.277110010385513306e-02,3.895159810781478882e-02,-5.163359921425580978e-03,3.728814423084259033e-02,7.506554946303367615e-03,3.872434422373771667e-02,6.630609929561614990e-02,-3.229538723826408386e-02
9.580061584711074829e-02,1.702100783586502075e-02,-2.546449191868305206e-02,7.946550101041793823e-02,5.178470537066459656e-02,-1.238496042788028717e-04,-7.585957646369934082e-02,4.872741643339395523e-03,-2.895040996372699738e-02,4.055995866656303406e-02,2.669545263051986694e-02,7.869254797697067261e-02,-1.115368604660034180e-01,-2.263182029128074646e-02,-2.688821987248957157e-04,-6.633003056049346924e-02,-1.335870027542114258e-01,9.697291254997253418e-02,-6.877526640892028809e-02,1.304463744163513184e-01
1.087534129619598389e-01,-3.464594017714262009e-03,2.290529571473598480e-02,-3.385858610272407532e-02,-6.415124982595443726e-02,4.909895732998847961e-02,-1.278469413518905640e-01,1.826799660921096802e-02,8.001184463500976562e-02,1.473327726125717163e-02,-2.814841223880648613e-03,-1.020038351416587830e-01,7.052448578178882599e-03,-1.466845348477363586e-02,-2.526019886136054993e-02,2.462950535118579865e-02,-3.592372231651097536e-04,-2.975483611226081848e-02,-1.706140302121639252e-02,-7.199066132307052612e-02
4.292021319270133972e-02,1.171739492565393448e-02,2.077318960800766945e-03,-3.046197816729545593e-04,-1.419113874435424805e-01,-6.498992443084716797e-02,5.303095281124114990e-02,-6.436446681618690491e-03,3.734339401125907898e-02,-1.814567111432552338e-02,6.489206850528717041e-02,-2.853647992014884949e-02,6.117371469736099243e-02,5.886849761009216309e-02,-7.032543420791625977e-02,1.489432435482740402e-02,-2.457247301936149597e-02,1.548053417354822159e-02,-3.138585388660430908e-02,-3.287405241280794144e-03
4.617653787136077881e-02,1.671302691102027893e-02,-6.206384394317865372e-03,2.372778486460447311e-03,8.674392849206924438e-02,4.369786009192466736e-02,-3.253429196774959564e-03,2.441273303702473640e-03,7.100838422775268555e-02,1.152903586626052856e-01,-3.922699543181806803e-04,-3.378885611891746521e-02,1.069473326206207275e-01,3.594000125303864479e-03,3.136799484491348267e-02,-1.005106046795845032e-01,2.230461686849594116e-02,8.552780747413635254e-02,1.083962321281433105e-01,-2.093425765633583069e-02
7.568016648292541504e-02,-2.155620604753494263e-02,-2.493504807353019714e-02,-2.928357012569904327e-02,6.418694555759429932e-02,7.542228698730468750e-02,-2.370776981115341187e-02,-5.004414357244968414e-03,-1.218663677573204041e-01,8.604487404227256775e-03,-1.013021767139434814e-01,-1.845235563814640045e-02,-5.969766899943351746e-02,-2.915293164551258087e-02,3.685814142227172852e-02,3.513393551111221313e-02,-1.285996437072753906e-01,-6.433251500129699707e-02,-1.706410571932792664e-02,-9.051469713449478149e-02
-2.405339106917381287e-02,-4.174285568296909332e-03,9.583024680614471436e-02,-5.190618336200714111e-02,7.163671404123306274e-02,-5.818692967295646667e-02,-3.020356781780719757e-02,-6.670477986335754395e-02,-8.989373594522476196e-02,-5.617304891347885132e-02,1.038834154605865479e-01,2.397707477211952209e-02,-3.672207705676555634e-03,-7.635524868965148926e-02,-1.641242578625679016e-02,4.326301068067550659e-02,-6.240998953580856323e-02,7.890956848859786987e-02,6.727358698844909668e-02,6.883941590785980225e-02
-1.084089726209640503e-01,1.207521557807922363e-01,-2.546261623501777649e-02,-1.961063221096992493e-02,-8.661358058452606201e-02,-1.364639699459075928e-01,-8.984259329736232758e-03,-4.379932954907417297e-02,-4.497348144650459290e-02,-4.133000597357749939e-02,-7.647683471441268921e-02,4.611529037356376648e-02,5.816404148936271667e-02,4.197883233428001404e-02,1.089798882603645325e-01,-1.085331756621599197e-02,1.253732740879058838e-01,5.858554318547248840e-02,-3.699145838618278503e-02,6.612064689397811890e-02
-5.233182013034820557e-02,1.980159617960453033e-02,-1.169998794794082642e-01,2.264914102852344513e-02,8.490066975355148315e-02,-4.359773173928260803e-02,1.016185954213142395e-01,3.329011425375938416e-02,5.289559811353683472e-02,2.564538270235061646e-02,9.712266735732555389e-03,1.048923004418611526e-02,-2.949756756424903870e-02,-4.870953038334846497e-02,-3.246697783470153809e-02,-7.943087257444858551e-03,1.330498158931732178e-01,-2.651933953166007996e-02,1.717696897685527802e-02,-1.552527304738759995e-03
-4.682343453168869019e-02,-8.565256744623184204e-02,1.444824133068323135e-02,-1.580276153981685638e-02,3.744729608297348022e-02,-4.939432442188262939e-02,7.247198838740587234e-03,-1.072999183088541031e-02,3.012136183679103851e-02,-6.307560205459594727e-02,1.029021814465522766e-01,5.360467359423637390e-02,4.633062332868576050e-02,5.136020854115486145e-02,1.151211112737655640e-01,9.265132248401641846e-03,8.328627049922943115e-02,3.097775205969810486e-02,3.433222323656082153e-02,2.195199392735958099e-02
-6.745602190494537354e-02,-6.624574959278106689e-02,-4.886241629719734192e-02,-8.635345101356506348e-02,-4.999628290534019470e-02,-9.560140222311019897e-02,-4.352381452918052673e-02,4.334605857729911804e-02,4.647783935070037842e-02,-2.259485237300395966e-02,-4.388009756803512573e-02,-1.078891009092330933e-01,-2.850453555583953857e-02,-2.964049763977527618e-02,-6.292483955621719360e-02,-1.363026797771453857e-01,-3.339160699397325516e-03,1.002301648259162903e-01,-1.588033884763717651e-02,1.039361134171485901e-01
5.699527263641357422e-02,7.902158796787261963e-02,-3.147976240143179893e-03,2.023262530565261841e-02,1.406632550060749054e-02,4.417552426457405090e-02,7.786092162132263184e-02,-1.439123880118131638e-02,-3.968654200434684753e-02,9.660312533378601074e-02,1.773534342646598816e-02,2.644887752830982208e-02,4.753364995121955872e-02,1.316328942775726318e-01,4.138520359992980957e-02,-1.446928177028894424e-02,9.712299704551696777e-02,7.225155085325241089e-02,-1.929025910794734955e-02,-8.841837197542190552e-02
6.754937022924423218e-02,-7.694786041975021362e-02,7.511727511882781982e-02,-4.727957025170326233e-02,8.861571550369262695e-03,1.859931042417883873e-03,6.918921321630477905e-02,1.292664110660552979e-01,2.006626129150390625e-02,8.178280293941497803e-02,1.287716776132583618e-01,6.346505600959062576e-03,-7.289813458919525146e-02,-9.030617773532867432e-02,2.687328122556209564e-02,-5.587615445256233215e-02,-1.164729520678520203e-01,-4.857443273067474365e-02,1.609556376934051514e-02,1.274001115234568715e-04
-3.166760876774787903e-02,-4.793151840567588806e-02,1.347863227128982544e-01,-7.709705829620361328e-02,7.548009604215621948e-02,4.609008878469467163e-02,-2.135785296559333801e-02,2.276358567178249359e-02,-3.760287165641784668e-02,-1.111724451184272766e-01,-9.664652496576309204e-02,-1.207201555371284485e-01,-6.106221117079257965e-03,3.235165774822235107e-02,1.846907846629619598e-02,5.298804491758346558e-02,-4.639295220840722322e-04,1.065242514014244080e-01,-2.786414325237274170e-02,1.474980451166629791e-02
9.996864944696426392e-02,3.074863925576210022e-02,1.010901667177677155e-02,-1.865592971444129944e-02,-8.398766815662384033e-02,-1.005517914891242981e-01,9.163483045995235443e-03,-8.968322724103927612e-02,1.185615360736846924e-01,6.578677147626876831e-02,-1.565761864185333252e-02,9.162660688161849976e-02,4.443629458546638489e-02,6.726682186126708984e-03,-3.234919905662536621e-02,1.709394529461860657e-02,8.155132830142974854e-02,4.330029338598251343e-02,6.449465453624725342e-02,3.593708202242851257e-02
-1.740622892975807190e-02,-6.327049434185028076e-02,2.854076027870178223e-02,-3.999642282724380493e-02,7.755187340080738068e-03,2.621229551732540131e-02,-3.840137645602226257e-02,-1.128784045577049255e-01,5.490150768309831619e-03,6.876394897699356079e-02,-7.572721689939498901e-02,-4.483357444405555725e-02,-8.975476771593093872e-02,6.519957631826400757e-02,-1.171274855732917786e-01,9.576450288295745850e-02,-1.559167075902223587e-02,-3.219476342201232910e-02,-1.137671023607254028e-01,-1.157154887914657593e-01
-8.371547609567642212e-02,3.133018314838409424e-02,-8.830475620925426483e-03,-2.432141453027725220e-03,-1.126022487878799438e-01,-4.284795001149177551e-02,-4.720639064908027649e-02,5.977977998554706573e-03,-2.109658438712358475e-03,-4.143031314015388489e-02,-3.345889225602149963e-02,-9.922444075345993042e-02,-5.858259275555610657e-02,9.788455069065093994e-02,3.679390298202633858e-03,-1.269523752853274345e-03,-6.378813832998275757e-02,5.866096541285514832e-02,-8.806610479950904846e-03,-1.207505762577056885e-01
1.251873970031738281e-01,-4.512559249997138977e-02,-4.474842175841331482e-02,-7.809871435165405273e-02,2.531349472701549530e-02,-2.469948306679725647e-02,-8.267740905284881592e-02,-5.673983599990606308e-03,2.208298631012439728e-02,-6.422009319067001343e-02,-2.451020991429686546e-03,-9.098037332296371460e-02,9.703273326158523560e-02,1.178241074085235596e-01,5.579891055822372437e-02,2.880480885505676270e-02,2.740464545786380768e-02,-1.369307655841112137e-02,-9.733325988054275513e-02,7.092541456222534180e-02
2.329217083752155304e-02,-3.540662303566932678e-02,6.467372179031372070e-02,2.030362188816070557e-02,-2.545267902314662933e-02,-8.405888825654983521e-02,-8.042379468679428101e-02,-1.173448562622070312e-01,-2.956872433423995972e-02,5.037805810570716858e-02,3.935112431645393372e-02,-1.116687953472137451e-01,8.444491028785705566e-02,4.883987084031105042e-02,-1.373409479856491089e-01,-7.487186044454574585e-02,8.375669270753860474e-02,-1.801274530589580536e-02,-5.751270428299903870e-02,1.135443896055221558e-01
-7.943250238895416260e-02,1.167515069246292114e-01,7.416990399360656738e-02,-3.807980800047516823e-03,-2.775331959128379822e-02,-3.681867942214012146e-02,6.108100712299346924e-02,-3.447559475898742676e-02,-1.119251921772956848e-02,-9.367685765027999878e-02,-9.753261506557464600e-02,1.158201098442077637e-01,9.342835098505020142e-02,-1.125776581466197968e-02,-1.402248628437519073e-02,1.142443269491195679e-01,1.400420907884836197e-03,7.810876704752445221e-03,7.995831966400146484e-02,-6.900887191295623779e-02
7.457634061574935913e-02,-1.324989832937717438e-02,-1.037635374814271927e-02,-7.321102917194366455e-02,1.241766512393951416e-01,5.025815591216087341e-02,3.126616030931472778e-02,-1.095659285783767700e-01,1.207705512642860413e-01,9.378681331872940063e-02,-5.309735611081123352e-02,7.430249452590942383e-02,-1.235798299312591553e-01,1.161176525056362152e-02,1.243344992399215698e-01,-3.468557819724082947e-02,1.049245372414588928e-01,3.718288987874984741e-02,5.498438328504562378e-02,3.555171564221382141e-02
-2.238471060991287231e-02,-1.022586598992347717e-02,1.009388081729412079e-02,-8.814143389463424683e-02,-5.559620261192321777e-02,-1.255902945995330811e-01,-1.722366362810134888e-02,-4.583973437547683716e-02,1.257018297910690308e-01,9.139139205217361450e-03,8.367701619863510132e-02,7.015819847583770752e-02,7.784890383481979370e-02,-1.799574494361877441e-02,4.911565035581588745e-02,-4.491202533245086670e-02,-1.369410455226898193e-01,9.952452033758163452e-03,-1.209811791777610779e-01,-2.399666048586368561e-02
-7.453724974766373634e-04,-1.338458508253097534e-01,1.759769022464752197e-02,-1.082888692617416382e-01,-4.788720235228538513e-02,-1.055719181895256042e-01,3.091434761881828308e-02,1.332816481590270996e-01,7.858337461948394775e-02,-4.019808396697044373e-02,5.810542404651641846e-02,3.880913183093070984e-02,7.067676633596420288e-02,-1.046644523739814758e-01,4.478264600038528442e-02,-1.056442558765411377e-01,-8.127257227897644043e-02,5.127238482236862183e-02,5.821548402309417725e-02,-7.200865447521209717e-02
2.341730054467916489e-03,4.731196910142898560e-02,9.668605029582977295e-02,-2.556206472218036652e-02,-8.399421721696853638e-02,2.375711686909198761e-02,-3.448869660496711731e-02,-5.841578543186187744e-02,6.192815303802490234e-02,-1.111025884747505188e-01,8.322834968566894531e-02,-3.825204446911811829e-02,-3.528739511966705322e-02,9.437625855207443237e-02,2.951056323945522308e-02,-5.815310776233673096e-02,1.303264964371919632e-02,1.050673425197601318e-01,-7.999352365732192993e-02,-9.811776131391525269e-02
-1.863860338926315308e-02,6.351718679070472717e-03,5.187134072184562683e-02,4.795505665242671967e-03,-8.718255907297134399e-02,-5.000504106283187866e-02,-1.170431226491928101e-01,-4.758833348751068115e-02,-1.230940520763397217e-01,7.435043156147003174e-02,7.233887165784835815e-02,-1.938900165259838104e-02,1.309754848480224609e-01,-3.426392748951911926e-02,-7.936961948871612549e-02,2.019505016505718231e-02,-2.054689824581146240e-02,-9.549763798713684082e-02,4.263486340641975403e-02,9.338630735874176025e-02
7.194325007731094956e-05,8.637642115354537964e-02,3.151788562536239624e-02,-4.986038431525230408e-02,-1.163710188120603561e-02,1.400010883808135986e-01,3.578286245465278625e-02,5.845000594854354858e-02,-1.257756445556879044e-02,-5.041975900530815125e-02,-1.051170285791158676e-03,5.727612879127264023e-03,2.799530327320098877e-02,5.279272422194480896e-02,-6.542438641190528870e-03,-1.773812063038349152e-02,-2.425245242193341255e-03,5.732511170208454132e-03,-1.017673537135124207e-01,5.604104604572057724e-03
-2.836797200143337250e-02,-9.068855643272399902e-02,-3.086287528276443481e-02,3.195985406637191772e-02,2.824479900300502777e-02,-1.983699575066566467e-02,-4.167939722537994385e-02,5.506163835525512695e-02,4.733216390013694763e-02,7.199790328741073608e-02,-4.487254843115806580e-02,9.549326449632644653e-02,1.051663830876350403e-01,1.104887761175632477e-02,1.287330687046051025e-01,-1.055523604154586792e-01,-3.735929355025291443e-02,-5.848686024546623230e-02,2.581031434237957001e-02,1.105965003371238708e-01
7.896445691585540771e-03,-4.190414026379585266e-02,4.728042706847190857e-02,-5.027943104505538940e-02,-1.141879707574844360e-03,4.630552232265472412e-02,3.565502911806106567e-02,3.807216137647628784e-02,1.411275565624237061e-02,-1.033659279346466064e-01,7.684641331434249878e-02,-6.484018266201019287e-02,-6.812380999326705933e-02,3.429043292999267578e-02,-7.846287637948989868e-02,1.045643631368875504e-02,-2.453825809061527252e-02,-1.759026944637298584e-02,1.050998419523239136e-01,8.376689255237579346e-02
8.493255823850631714e-02,1.355156600475311279e-01,-4.981715232133865356e-02,2.371203340590000153e-02,9.291032701730728149e-02,5.614693835377693176e-02,-7.552651315927505493e-02,-6.288472563028335571e-02,7.331055402755737305e-02,1.192117035388946533e-01,-2.258359827101230621e-02,3.527282178401947021e-02,2.865454927086830139e-02,9.275552630424499512e-02,-6.418257206678390503e-02,5.810764431953430176e-02,-1.002529039978981018e-01,6.154633685946464539e-02,-3.110762313008308411e-02,-7.143518328666687012e-02
-2.137723751366138458e-02,1.864441111683845520e-02,-6.583473086357116699e-02,2.758582495152950287e-02,-1.371549814939498901e-02,5.916349589824676514e-02,-1.567023061215877533e-02,4.064087197184562683e-02,-4.956351965665817261e-02,2.147230878472328186e-02,-1.140575408935546875e-01,8.373846113681793213e-02,8.574167639017105103e-02,6.287756375968456268e-03,3.510084748268127441e-02,-9.899775683879852295e-02,6.098196655511856079e-02,8.502255380153656006e-02,-1.067044660449028015e-01,-9.104218333959579468e-02
1.312615126371383667e-01,-4.289519414305686951e-02,-1.372295916080474854e-01,1.730655506253242493e-02,3.411677479743957520e-02,2.389201708137989044e-02,3.867853432893753052e-02,7.677903771400451660e-02,1.659249514341354370e-02,-5.932988598942756653e-02,4.884630069136619568e-02,-2.598958089947700500e-02,-1.083060447126626968e-02,1.704771257936954498e-02,3.505355678498744965e-03,1.449168194085359573e-02,-3.607316408306360245e-03,1.312879323959350586e-01,8.584211021661758423e-02,7.898630946874618530e-02
-6.507426500320434570e-02,5.773204937577247620e-02,-6.223485991358757019e-02,6.620249245315790176e-03,4.490517824888229370e-02,3.575962781906127930e-02,4.936964251101016998e-04,4.545847699046134949e-02,-9.339912235736846924e-02,1.035883054137229919e-01,8.870552293956279755e-03,1.796840503811836243e-02,-7.178401201963424683e-02,-1.108010765165090561e-02,1.197683513164520264e-01,-2.050733380019664764e-02,-7.417761534452438354e-02,3.398524224758148193e-02,5.139856413006782532e-02,-1.040367782115936279e-01
4.637512937188148499e-02,6.953652948141098022e-03,-5.279404111206531525e-03,-8.094701915979385376e-02,-1.191524118185043335e-01,3.144803643226623535e-02,-3.890102729201316833e-02,-2.338654734194278717e-02,-1.403410583734512329e-01,1.050765067338943481e-01,-2.967003919184207916e-02,-1.218506246805191040e-01,4.118075594305992126e-02,-8.193032816052436829e-03,2.899488061666488647e-02,-3.145157592371106148e-03,-5.287801846861839294e-02,-1.156469509005546570e-01,9.164892137050628662e-02,1.833696104586124420e-02
9.243626892566680908e-02,-6.475581321865320206e-03,1.207658424973487854e-01,7.157646585255861282e-03,-8.225439488887786865e-02,-7.793175522238016129e-03,1.571446284651756287e-02,5.425634980201721191e-02,1.780489273369312286e-02,-6.616249680519104004e-02,-4.564663395285606384e-02,5.159480497241020203e-02,9.177637845277786255e-02,-4.903941601514816284e-02,1.410545315593481064e-03,9.830132126808166504e-02,7.102857530117034912e-02,4.956937860697507858e-03,2.524313703179359436e-02,-4.768636822700500488e-02
2.634542994201183319e-02,-4.691796004772186279e-02,4.775070399045944214e-02,-5.398839339613914490e-02,2.534103207290172577e-02,-2.262154780328273773e-02,3.939934447407722473e-02,3.365705534815788269e-02,-1.033468265086412430e-02,5.725701153278350830e-02,-2.682114392518997192e-02,-7.245554774999618530e-02,-9.289682656526565552e-02,-1.273342967033386230e-02,-1.354219485074281693e-02,-1.722282357513904572e-02,-9.266723692417144775e-02,4.889184609055519104e-02,6.785929203033447266e-02,8.874145895242691040e-02
3.103375993669033051e-02,9.185550361871719360e-02,-3.595150634646415710e-02,2.152553759515285492e-02,-8.208748698234558105e-02,5.337375774979591370e-02,-6.445322185754776001e-03,1.548976544290781021e-02,-7.871659100055694580e-02,1.807378791272640228e-02,1.317894309759140015e-01,-2.767261583358049393e-03,4.452566802501678467e-02,8.410159498453140259e-02,-3.822229430079460144e-02,-9.037360548973083496e-02,4.871685057878494263e-02,4.729228094220161438e-03,1.253203861415386200e-02,-5.349128320813179016e-02
4.063634574413299561e-02,-9.093811362981796265e-02,3.324861451983451843e-02,7.113770395517349243e-02,3.617788851261138916e-02,1.268289089202880859e-01,-6.612712144851684570e-02,-2.840743586421012878e-02,4.238817468285560608e-02,-5.954705993644893169e-04,1.025842428207397461e-01,-7.458974141627550125e-03,2.990401349961757660e-02,-7.075665891170501709e-02,-1.166332736611366272e-01,8.944525569677352905e-02,-2.354826033115386963e-02,-7.105499040335416794e-03,1.019020304083824158e-01,-2.684300206601619720e-02
-1.491589285433292389e-02,-1.130070984363555908e-01,-1.328578218817710876e-02,3.728342801332473755e-02,-4.430561140179634094e-02,-1.235977783799171448e-01,9.951998293399810791e-02,-8.596197701990604401e-03,-9.635774046182632446e-02,1.098282784223556519e-01,-8.713676035404205322e-02,-4.981533158570528030e-03,-7.776587456464767456e-02,1.121374312788248062e-02,8.347894251346588135e-02,-4.622985050082206726e-02,-1.227701604366302490e-01,-8.594348281621932983e-02,-3.658657521009445190e-02,8.936055004596710205e-03
-9.813000261783599854e-02,2.598499180749058723e-03,2.014416456222534180e-02,1.383634805679321289e-01,7.639458775520324707e-02,2.444209530949592590e-02,1.465763431042432785e-02,-4.845391027629375458e-03,-7.135914266109466553e-02,-5.992808565497398376e-02,3.843129053711891174e-02,-6.925234198570251465e-02,-4.282052442431449890e-02,6.159047037363052368e-02,-1.109584979712963104e-02,2.279983274638652802e-02,1.119543462991714478e-01,1.596518233418464661e-02,-8.696669712662696838e-03,9.848902374505996704e-02
-3.203253448009490967e-02,1.072825193405151367e-01,1.081381663680076599e-01,3.869493305683135986e-02,-1.139435917139053345e-02,-4.704601317644119263e-02,-1.107031553983688354e-01,-1.069885864853858948e-02,1.020866483449935913e-01,-1.409577485173940659e-02,2.675407379865646362e-02,1.211447082459926605e-02,3.893652930855751038e-02,4.051091149449348450e-02,-1.286788433790206909e-01,-6.702322978526353836e-03,-4.471124708652496338e-02,1.813778653740882874e-02,-1.121689453721046448e-01,2.422378771007061005e-02
-1.805292814970016479e-02,1.800126768648624420e-02,2.654374390840530396e-02,-3.990517184138298035e-02,-8.808113634586334229e-02,6.014915555715560913e-02,1.102118045091629028e-01,-2.405851334333419800e-02,-2.641935460269451141e-02,-6.404536217451095581e-02,1.185093715321272612e-04,-8.376027643680572510e-02,-5.284944921731948853e-02,-4.760501906275749207e-02,-7.133287936449050903e-02,-8.869379758834838867e-02,-5.598750710487365723e-02,1.449721213430166245e-02,5.407363921403884888e-02,5.076766014099121094e-02
8.341754972934722900e-02,-5.877700820565223694e-02,-1.667665876448154449e-02,5.932181701064109802e-02,-5.707781389355659485e-02,2.568794414401054382e-02,1.955786533653736115e-02,8.758927136659622192e-02,2.541314810514450073e-02,5.344328284263610840e-02,1.073669418692588806e-01,-8.635535836219787598e-02,7.853944599628448486e-02,-6.534610688686370850e-02,1.017744541168212891e-01,-2.230002079159021378e-03,5.218660831451416016e-02,1.087715551257133484e-01,4.489276558160781860e-02,1.100566685199737549e-01
4.303652048110961914e-02,-1.745460368692874908e-02,-7.734333723783493042e-02,4.989907145500183105e-02,-1.180014573037624359e-02,-5.373968929052352905e-02,4.912112653255462646e-02,-2.216408960521221161e-02,5.442089214920997620e-02,-6.176008377224206924e-03,9.692264720797538757e-03,3.641223907470703125e-02,-1.054972186684608459e-01,-1.347657386213541031e-02,3.366318345069885254e-02,-7.195296138525009155e-02,9.574359655380249023e-02,-3.309606388211250305e-02,-5.469005554914474487e-02,-1.297752093523740768e-02
1.542009599506855011e-02,-3.461560234427452087e-02,9.640258550643920898e-02,5.611423030495643616e-02,-7.327102124691009521e-02,-1.717724278569221497e-02,-1.313628852367401123e-01,-2.726060105487704277e-03,-2.305122651159763336e-02,6.533749401569366455e-02,-7.318534702062606812e-02,6.210149452090263367e-02,3.198190405964851379e-02,1.206014379858970642e-01,-8.351827971637248993e-03,6.128457933664321899e-02,-4.847906529903411865e-02,-1.144340783357620239e-01,1.284595131874084473e-01,-8.441957086324691772e-02
6.431575119495391846e-02,5.105027183890342712e-02,-7.512120157480239868e-02,3.668375685811042786e-02,1.208030879497528076e-01,-3.402728214859962463e-02,6.140891462564468384e-02,-1.193221956491470337e-01,2.108492143452167511e-02,4.694158583879470825e-02,-9.127115458250045776e-02,-1.324564218521118164e-02,-8.656139252707362175e-04,-9.536592662334442139e-02,1.316697243601083755e-02,-6.200062483549118042e-02,-2.541767433285713196e-02,-4.771095700562000275e-03,7.021526992321014404e-02,-4.226295277476310730e-03
-4.339812323451042175e-02,7.609484251588582993e-03,-1.006141826510429382e-01,-7.335895299911499023e-02,-3.555129468441009521e-02,8.095218986272811890e-02,-6.445079110562801361e-03,5.878213047981262207e-02,8.107170462608337402e-02,7.131320983171463013e-02,-2.623383328318595886e-02,-5.918749049305915833e-02,1.364674977958202362e-02,-6.853868067264556885e-02,-7.118204236030578613e-02,-1.010118424892425537e-01,-1.088927015662193298e-01,-7.468739151954650879e-02,-5.473970994353294373e-02,5.859175507794134319e-05
4.510507918894290924e-03,9.600345045328140259e-02,1.089435145258903503e-01,-2.599254809319972992e-02,-9.745504707098007202e-02,-1.650493033230304718e-02,-2.108751423656940460e-02,-2.153565548360347748e-02,4.719321802258491516e-02,7.746628671884536743e-02,-8.348489180207252502e-03,-2.911380305886268616e-02,-2.122305706143379211e-02,-5.542796105146408081e-02,6.915513426065444946e-02,-5.611390992999076843e-02,5.143209546804428101e-02,-1.660181768238544464e-02,-7.157298922538757324e-02,1.672892132773995399e-03
-2.391366288065910339e-02,-3.248611837625503540e-02,-1.615018118172883987e-03,9.892705827951431274e-03,-9.551564231514930725e-03,3.044895268976688385e-02,1.392756998538970947e-01,-9.556609392166137695e-02,-7.089038193225860596e-02,4.973021894693374634e-02,1.061461865901947021e-01,-1.785159856081008911e-02,2.424202300608158112e-02,1.052267104387283325e-01,-3.931257501244544983e-02,1.582902111113071442e-02,-1.205061189830303192e-02,8.225110359489917755e-03,-1.358872652053833008e-01,-1.089551835320889950e-03
4.871876910328865051e-02,-5.453611165285110474e-02,2.175824530422687531e-02,1.103413477540016174e-01,6.259214133024215698e-02,5.859212949872016907e-02,1.283868961036205292e-02,2.684422768652439117e-02,-5.348834022879600525e-02,2.221414120867848396e-03,1.241461709141731262e-01,-1.949572376906871796e-02,2.913113869726657867e-02,9.735496714711189270e-03,-1.835465431213378906e-02,1.170524656772613525e-01,5.177580937743186951e-02,-2.484194375574588776e-02,8.560472726821899414e-02,-4.844567179679870605e-02
2.461421862244606018e-02,6.933787465095520020e-02,-7.035110890865325928e-02,-8.061163127422332764e-02,6.169758364558219910e-02,-2.295965142548084259e-02,-6.915857642889022827e-02,-8.714056760072708130e-02,2.335738204419612885e-02,-1.020903512835502625e-01,2.944370731711387634e-02,5.732525512576103210e-02,3.492934629321098328e-02,1.703584939241409302e-02,9.653206914663314819e-02,7.741789519786834717e-02,-5.107674002647399902e-02,-1.917046681046485901e-02,1.628185808658599854e-02,-6.160014774650335312e-03
-7.705897092819213867e-02,-4.438259080052375793e-02,-9.679920971393585205e-02,3.327594138681888580e-03,6.280840933322906494e-02,-7.372280210256576538e-02,-2.830895036458969116e-02,-9.770526736974716187e-02,-1.077364012598991394e-01,-7.209637016057968140e-02,-4.414848238229751587e-02,6.681106239557266235e-02,3.437836840748786926e-02,5.573237314820289612e-02,6.815691292285919189e-02,1.254364848136901855e-01,7.475647330284118652e-02,5.075222998857498169e-02,-2.459947392344474792e-02,1.524426043033599854e-02
3.019958920776844025e-02,1.127775385975837708e-01,-3.457341343164443970e-02,1.287955325096845627e-02,-9.929174929857254028e-02,1.244840305298566818e-02,-7.607516646385192871e-02,-8.061876893043518066e-02,-5.373876541852951050e-02,-1.037568598985671997e-01,-7.765246927738189697e-02,-3.093804791569709778e-02,8.561071008443832397e-02,4.262389987707138062e-02,5.935041606426239014e-02,8.078578859567642212e-03,3.056508675217628479e-02,-3.681661933660507202e-02,-4.771571606397628784e-02,-1.324029266834259033e-01
1.125122532248497009e-01,-1.339075993746519089e-02,1.031012833118438721e-02,1.679474674165248871e-02,9.154092520475387573e-02,-3.024947643280029297e-02,2.920431457459926605e-02,2.644467167556285858e-02,-4.481803160160779953e-03,-1.177886426448822021e-01,-3.575995564460754395e-02,6.563981622457504272e-02,5.287155136466026306e-02,-1.311130374670028687e-01,-2.522080764174461365e-02,6.998615711927413940e-02,1.181791187264025211e-03,-9.058506786823272705e-02,2.703032456338405609e-02,6.319483369588851929e-02
-4.049594327807426453e-02,3.308452665805816650e-02,-3.782941401004791260e-02,-8.588557690382003784e-02,7.509752362966537476e-02,-1.279842760413885117e-02,9.987948462367057800e-03,-1.056421622633934021e-01,1.028400473296642303e-02,5.812181904911994934e-02,9.768663346767425537e-02,-4.169499501585960388e-02,2.780021727085113525e-02,-4.602229967713356018e-02,-1.046761646866798401e-01,-5.130133777856826782e-02,-7.313530892133712769e-02,3.077886998653411865e-02,4.370052367448806763e-02,-7.360769808292388916e-02
6.041739508509635925e-02,6.304096896201372147e-03,9.530249238014221191e-02,1.869288086891174316e-02,1.230083126574754715e-02,-1.133785396814346313e-01,6.528848409652709961e-02,5.501707643270492554e-02,-1.246633231639862061e-01,-1.163843180984258652e-02,7.784805260598659515e-03,8.152045309543609619e-02,-1.319982558488845825e-01,-9.804646484553813934e-03,-4.994716495275497437e-02,-2.594563737511634827e-02,1.704703271389007568e-02,1.138725951313972473e-01,-7.126092165708541870e-02,-8.600615710020065308e-02
-9.472071379423141479e-02,-1.458319649100303650e-02,-1.071613654494285583e-02,-5.797870084643363953e-02,5.559565499424934387e-02,-3.774923738092184067e-03,-7.666980475187301636e-02,1.065628509968519211e-02,2.746107615530490875e-02,-7.443720102310180664e-02,-6.821486353874206543e-02,-1.065138354897499084e-02,5.358394235372543335e-02,9.223447740077972412e-02,-2.625028416514396667e-02,3.559292480349540710e-02,-6.500809919089078903e-03,-2.283645607531070709e-02,5.221742019057273865e-02,4.554696381092071533e-02
6.718710064888000488e-02,-2.922008559107780457e-02,-1.059079840779304504e-01,4.104387760162353516e-02,2.419200353324413300e-02,5.936908721923828125e-02,1.239093244075775146e-01,-3.230609931051731110e-03,4.096079152077436447e-03,1.340688765048980713e-01,-2.869404479861259460e-02,1.814535935409367085e-03,-9.125229716300964355e-02,3.366427123546600342e-02,3.684460418298840523e-03,-3.974768146872520447e-02,-5.052403360605239868e-02,-5.529074743390083313e-02,1.003221049904823303e-01,-6.061104941181838512e-04
-3.551083616912364960e-03,1.989564672112464905e-02,1.295391470193862915e-01,2.371536009013652802e-02,7.657684385776519775e-02,9.399840980768203735e-02,-9.883643686771392822e-02,-3.693085536360740662e-02,4.909367486834526062e-02,2.151154913008213043e-02,-2.005650848150253296e-02,-3.446361050009727478e-02,-1.101279258728027344e-01,3.948380053043365479e-02,6.164745613932609558e-02,-1.906723901629447937e-02,2.795282378792762756e-02,-9.523979574441909790e-02,-1.362997014075517654e-02,-1.697150245308876038e-02
4.972048476338386536e-02,1.315189599990844727e-01,8.354489505290985107e-02,-9.248425811529159546e-02,-2.886477671563625336e-02,8.182912715710699558e-04,5.770481750369071960e-02,-6.896755099296569824e-02,-4.201485589146614075e-02,5.224021151661872864e-02,4.015121981501579285e-02,-1.063454374670982361e-01,-1.351227238774299622e-02,-7.127591222524642944e-02,7.180567830801010132e-02,1.811102963984012604e-02,3.630115091800689697e-02,1.189243346452713013e-01,-9.833466261625289917e-02,-1.846195198595523834e-02
-2.218699641525745392e-02,-4.702022299170494080e-02,7.488813996315002441e-02,-5.692217033356428146e-03,1.452804915606975555e-02,6.847969256341457367e-03,6.392735242843627930e-02,1.084440425038337708e-01,-2.808661572635173798e-02,-1.186862438917160034e-01,4.699466284364461899e-03,-3.846234083175659180e-02,-6.374955177307128906e-02,9.833049960434436798e-03,7.212987542152404785e-02,-2.610580623149871826e-02,8.664475381374359131e-02,-4.051020368933677673e-02,6.365391425788402557e-03,-1.106507256627082825e-01
1.764087378978729248e-02,-8.262000977993011475e-02,7.938127964735031128e-02,1.141614839434623718e-01,-8.535971492528915405e-02,-3.359198570251464844e-02,-8.385851979255676270e-02,-2.183802239596843719e-02,3.202380985021591187e-02,3.147206082940101624e-02,1.358607131987810135e-02,-3.655583411455154419e-02,-9.410715848207473755e-02,-6.913498789072036743e-02,-8.647562563419342041e-02,-7.569621503353118896e-02,-2.211930230259895325e-02,-6.601513177156448364e-02,-6.247356161475181580e-02,-4.763556271791458130e-02
5.116271972656250000e-02,1.116643026471138000e-01,4.157666489481925964e-02,-5.103510990738868713e-02,-3.864279389381408691e-02,1.981845870614051819e-02,2.665659412741661072e-02,-1.001152247190475464e-01,5.503575503826141357e-02,5.879995971918106079e-02,-8.266139775514602661e-02,-4.041524976491928101e-02,3.032214939594268799e-02,-5.720464140176773071e-02,-5.486609414219856262e-02,1.211396902799606323e-01,-2.931994386017322540e-02,2.503476291894912720e-02,-4.358157515525817871e-03,1.222807690501213074e-01
2.796820178627967834e-02,-1.871699583716690540e-03,4.911368340253829956e-02,-5.483822524547576904e-02,-5.534803867340087891e-02,3.724463284015655518e-03,-8.790370821952819824e-02,-4.743378981947898865e-02,-5.606823042035102844e-02,1.231099851429462433e-02,-5.897242948412895203e-02,1.454560551792383194e-02,6.286673992872238159e-02,6.716234236955642700e-02,7.667689770460128784e-02,6.494874507188796997e-02,-5.578432232141494751e-02,-4.575296118855476379e-02,-3.840250894427299500e-02,4.021852090954780579e-02
-8.327982574701309204e-02,-5.893817543983459473e-02,6.634782254695892334e-02,2.566578425467014313e-02,1.065939441323280334e-01,2.156838960945606232e-02,-6.770987808704376221e-02,6.222264096140861511e-02,2.588217891752719879e-02,-2.241911366581916809e-02,4.955806955695152283e-02,2.736383303999900818e-02,2.417802996933460236e-02,-1.157100964337587357e-02,9.465952217578887939e-02,2.729137241840362549e-02,-7.408391684293746948e-02,8.485669642686843872e-02,-8.780678361654281616e-02,-1.303552091121673584e-01
5.499890819191932678e-02,1.269110478460788727e-02,1.184032950550317764e-02,1.813157647848129272e-02,-8.706223964691162109e-02,5.126099660992622375e-02,4.936992749571800232e-02,-2.772935479879379272e-02,-9.825573116540908813e-02,-4.378832131624221802e-02,1.171032413840293884e-01,-3.008161857724189758e-02,-1.527594123035669327e-02,1.226099207997322083e-01,-8.387419395148754120e-03,-1.263330280780792236e-01,4.860247299075126648e-02,4.911254718899726868e-02,-2.763109095394611359e-02,-5.049042776226997375e-02
-1.583032682538032532e-02,-5.885602533817291260e-02,7.571451365947723389e-02,-6.557421386241912842e-02,1.325394511222839355e-01,1.123316660523414612e-01,1.019114702939987183e-01,-1.391232758760452271e-01,9.568589925765991211e-02,-3.303864970803260803e-02,-4.291192442178726196e-02,5.542900785803794861e-02,-8.379554003477096558e-02,1.794939674437046051e-02,-8.588071912527084351e-02,-1.266584098339080811e-01,-6.316383928060531616e-02,8.328055590391159058e-02,-1.176772415637969971e-01,4.251086711883544922e-02
7.587849348783493042e-02,1.238984242081642151e-01,5.433038994669914246e-02,-3.835044801235198975e-02,1.467321626842021942e-02,-9.021973609924316406e-02,6.327772140502929688e-02,3.035031817853450775e-02,-3.166314214468002319e-02,-5.819061771035194397e-02,-4.414102993905544281e-03,5.070496723055839539e-02,4.257974401116371155e-02,-2.285052463412284851e-02,6.382802128791809082e-02,-2.101618424057960510e-02,-2.961631305515766144e-02,4.273887351155281067e-02,-8.227231353521347046e-02,-9.445583820343017578e-02
3.783863410353660583e-02,-6.392055004835128784e-02,2.338095195591449738e-02,5.350717157125473022e-02,-2.577888593077659607e-02,-4.349086433649063110e-02,7.774545997381210327e-02,-3.533203899860382080e-02,-9.240815415978431702e-03,3.520964458584785461e-02,-5.134157836437225342e-02,3.083006665110588074e-02,1.150076612830162048e-01,9.661547839641571045e-02,3.623430430889129639e-02,-1.276655048131942749e-01,-4.973114654421806335e-02,2.207267656922340393e-02,7.954842410981655121e-03,7.158955931663513184e-02
-5.634359270334243774e-02,-1.111675724387168884e-01,1.527985092252492905e-02,1.108310818672180176e-01,-1.022282093763351440e-01,-8.094938844442367554e-02,4.884755238890647888e-02,-5.707354471087455750e-02,1.373845934867858887e-01,7.128332275897264481e-03,6.192699074745178223e-02,-4.034343734383583069e-02,1.133015728555619717e-03,3.942330554127693176e-02,1.688836328685283661e-02,-1.021012850105762482e-02,6.549848709255456924e-03,7.352455705404281616e-02,-7.826150208711624146e-02,9.325160831212997437e-02
3.477007150650024414e-02,1.145632714033126831e-01,9.818889945745468140e-02,-1.503604743629693985e-02,4.778863396495580673e-03,-2.599689178168773651e-02,1.416341066360473633e-01,-3.645125031471252441e-02,7.249537855386734009e-02,-1.179370731115341187e-01,-1.503978203982114792e-02,-8.953376673161983490e-03,1.164141222834587097e-01,1.123439893126487732e-01,-1.046922057867050171e-01,-8.402722328901290894e-02,-4.201282281428575516e-03,-5.343119800090789795e-02,1.440594196319580078e-01,2.988863736391067505e-02
-5.679666250944137573e-02,6.791660934686660767e-02,-9.305888786911964417e-03,3.415000811219215393e-02,-6.541430205106735229e-02,-1.172826811671257019e-01,3.277471661567687988e-02,-7.280808687210083008e-02,-2.282333932816982269e-02,2.610815875232219696e-02,4.125308617949485779e-02,4.969853162765502930e-02,-3.512420505285263062e-02,1.354870200157165527e-01,-1.076645851135253906e-01,1.115476265549659729e-01,-6.383793056011199951e-02,-1.148294433951377869e-01,2.046975493431091309e-02,3.693259507417678833e-02
-5.672879889607429504e-02,2.336621843278408051e-02,8.239518851041793823e-02,6.176007911562919617e-02,-4.794827103614807129e-02,-3.133671730756759644e-02,-2.737256698310375214e-02,4.522646591067314148e-02,6.354772299528121948e-02,-3.457431867718696594e-02,2.057652361690998077e-02,-8.638922125101089478e-02,-6.330994516611099243e-02,-2.559732832014560699e-02,-5.107768997550010681e-02,6.389290094375610352e-02,-1.033012345433235168e-01,-2.100026421248912811e-02,7.348391413688659668e-02,-1.700120419263839722e-02
-6.742525845766067505e-02,9.075909107923507690e-02,-1.004075184464454651e-01,3.344450518488883972e-02,7.536537200212478638e-02,7.003029435873031616e-02,-3.538528084754943848e-02,-7.906022481620311737e-03,-7.244984619319438934e-03,6.127835810184478760e-02,2.104458957910537720e-02,6.281191110610961914e-02,1.069502383470535278e-01,-2.208877727389335632e-02,-6.717187911272048950e-02,-1.158341243863105774e-01,5.518394336104393005e-02,-3.216427564620971680e-02,8.636592328548431396e-02,-1.213170122355222702e-02
-2.716907858848571777e-02,-3.643278265371918678e-03,5.733598023653030396e-02,5.301418155431747437e-02,-1.724190451204776764e-02,4.349328577518463135e-02,-3.499479964375495911e-02,-2.144263684749603271e-02,3.717504441738128662e-02,-7.073588669300079346e-02,-4.061204567551612854e-02,-7.637442648410797119e-02,7.809256762266159058e-02,8.150388300418853760e-02,1.231004763394594193e-02,-2.092401310801506042e-02,-6.648549437522888184e-02,3.442807821556925774e-03,8.197589218616485596e-02,6.377635989338159561e-03
-9.566684253513813019e-03,1.620438322424888611e-02,3.831212595105171204e-02,7.187052071094512939e-02,-4.406634345650672913e-02,-5.322760343551635742e-02,-2.112322300672531128e-02,-7.458536420017480850e-03,-3.666964545845985413e-02,-3.510463517159223557e-03,4.757088050246238708e-02,2.660132758319377899e-02,-5.881565436720848083e-02,-8.869707584381103516e-03,-3.214630857110023499e-02,-4.754315689206123352e-02,-2.822704240679740906e-02,-4.748911596834659576e-03,-7.167379371821880341e-03,1.461713463068008423e-01
-2.588706463575363159e-02,8.960623526945710182e-04,-4.105761274695396423e-02,-5.580794811248779297e-02,-6.749573349952697754e-02,9.382604062557220459e-02,4.173625260591506958e-02,7.241195440292358398e-02,4.179279133677482605e-02,5.837249383330345154e-02,3.912719432264566422e-03,-6.881292443722486496e-03,-1.125174388289451599e-01,-1.694330200552940369e-02,2.849558368325233459e-02,-9.868503548204898834e-03,-4.365864396095275879e-02,-1.301292628049850464e-01,2.826480753719806671e-02,9.790117293596267700e-02
9.744926542043685913e-02,-6.013602018356323242e-03,8.844497054815292358e-02,1.303300261497497559e-01,1.558825280517339706e-02,-8.873372524976730347e-02,1.589577458798885345e-02,-4.814999923110008240e-02,-8.103585988283157349e-02,-1.404598355293273926e-01,-2.941253408789634705e-02,-3.066201321780681610e-02,-2.409373223781585693e-02,-3.835031762719154358e-02,6.134163960814476013e-02,1.013432219624519348e-01,-8.418796211481094360e-02,-6.606571376323699951e-02,-1.956726191565394402e-03,-1.619288884103298187e-02
-7.098951190710067749e-02,4.015088081359863281e-02,-3.698510304093360901e-02,-1.247275993227958679e-02,8.801835589110851288e-03,-7.475695107132196426e-03,-1.782648079097270966e-02,-2.544343285262584686e-02,7.752318680286407471e-02,-6.816418375819921494e-03,7.602240145206451416e-02,8.934527635574340820e-02,-1.270416937768459320e-02,8.125460147857666016e-02,6.184215098619461060e-02,2.552930451929569244e-02,-1.933389157056808472e-02,4.870824143290519714e-02,-4.844578355550765991e-02,2.310067787766456604e-02
-7.521145045757293701e-02,1.245339307934045792e-02,1.462300028651952744e-02,-5.352556705474853516e-02,-4.863429069519042969e-02,2.274135500192642212e-02,3.974219411611557007e-02,-7.817069441080093384e-02,9.771175682544708252e-03,-5.625546351075172424e-02,-3.014115802943706512e-02,-3.553309291601181030e-02,-1.103499904274940491e-01,1.640567556023597717e-02,-4.319154191762208939e-03,-5.678026750683784485e-02,2.569678239524364471e-02,-3.957828506827354431e-02,-1.178800761699676514e-01,8.861113339662551880e-02
-1.207619812339544296e-02,-1.107169464230537415e-01,1.330391764640808105e-01,-4.860877618193626404e-02,-5.987512320280075073e-02,-2.299424633383750916e-02,-8.220705389976501465e-02,5.004009231925010681e-02,-5.548616126179695129e-02,5.195426288992166519e-03,-1.139027066528797150e-02,-8.254938572645187378e-02,-9.878797456622123718e-03,1.157957091927528381e-01,2.389916032552719116e-02,-5.158401560038328171e-03,3.552529215812683105e-02,9.606730937957763672e-02,3.650777414441108704e-02,-1.010326948016881943e-02
1.023522019386291504e-01,-1.251522451639175415e-02,1.185092926025390625e-01,-1.090523749589920044e-01,-1.041213199496269226e-01,6.048412248492240906e-02,8.295226097106933594e-02,-1.072612851858139038e-01,5.712087824940681458e-02,6.389614939689636230e-02,9.364267438650131226e-02,-4.657066240906715393e-02,-5.693800002336502075e-02,1.032066941261291504e-01,-7.331924140453338623e-02,4.309435933828353882e-02,-3.485045954585075378e-02,8.057413995265960693e-02,3.680630773305892944e-02,-4.713606834411621094e-02
-6.113057583570480347e-02,1.631807722151279449e-02,2.544282004237174988e-02,-2.117340825498104095e-02,7.094046473503112793e-02,-6.984220445156097412e-02,6.588295102119445801e-02,7.639844715595245361e-02,1.593931927345693111e-03,1.349593549966812134e-01,-1.234725788235664368e-01,-4.841806367039680481e-02,-5.022000148892402649e-02,8.559484034776687622e-03,2.085274551063776016e-03,-8.468449115753173828e-03,-1.292792856693267822e-01,7.522549480199813843e-02,4.814359545707702637e-02,1.136219501495361328e-01
2.933065779507160187e-02,3.385735675692558289e-02,-1.253807637840509415e-02,-1.376125216484069824e-01,-2.732639573514461517e-02,6.238576769828796387e-02,-6.663831323385238647e-02,1.159038161858916283e-03,4.238161817193031311e-02,2.271507121622562408e-02,-4.223548248410224915e-02,-3.103558439761400223e-03,1.335172262042760849e-02,-3.079675696790218353e-02,-2.906615659594535828e-02,-1.412020809948444366e-02,5.032188445329666138e-02,1.357103437185287476e-01,3.880593925714492798e-02,5.037011951208114624e-02
3.023094125092029572e-02,3.760596737265586853e-02,-3.377894312143325806e-02,-3.115073032677173615e-02,3.240271937102079391e-03,-4.127298668026924133e-02,4.278293997049331665e-02,-2.649560384452342987e-02,-4.348092898726463318e-02,-9.669768065214157104e-02,8.531673252582550049e-02,9.366533905267715454e-02,1.012912094593048096e-01,-5.111957341432571411e-02,-3.559092432260513306e-02,5.053082946687936783e-03,1.963865570724010468e-02,1.459447760134935379e-02,2.982283197343349457e-02,-2.632975019514560699e-02
-3.085377998650074005e-02,-4.395587369799613953e-03,8.736125379800796509e-02,1.281224489212036133e-01,1.040983647108078003e-01,-1.985149830579757690e-02,-4.952814429998397827e-02,2.673227712512016296e-02,-4.198290780186653137e-02,1.122788563370704651e-01,3.466446325182914734e-02,9.836030658334493637e-04,6.479243747889995575e-03,3.999809175729751587e-02,-6.339352112263441086e-03,8.561270684003829956e-02,4.458887130022048950e-02,-1.494491845369338989e-02,6.260871142148971558e-02,5.953321978449821472e-02
7.522336672991514206e-04,-9.087671339511871338e-02,7.859922945499420166e-02,1.814432255923748016e-02,7.270109653472900391e-02,-9.344645589590072632e-02,4.683485999703407288e-02,-2.835966832935810089e-02,4.694132134318351746e-02,-5.771375447511672974e-02,-3.028402291238307953e-02,3.877794742584228516e-02,8.035658299922943115e-02,3.917003422975540161e-02,4.408087953925132751e-02,-6.889224052429199219e-02,1.021289266645908356e-02,7.075312733650207520e-02,-1.008239015936851501e-01,-4.337208718061447144e-02
8.072566986083984375e-02,-9.816591627895832062e-03,-5.278545245528221130e-02,-3.718815743923187256e-02,1.231598332524299622e-01,1.796976476907730103e-02,-8.148784935474395752e-02,2.952017448842525482e-02,-6.099427863955497742e-02,-9.712042659521102905e-02,5.473483726382255554e-02,1.185401063412427902e-02,4.910250753164291382e-02,1.231201440095901489e-01,7.355282455682754517e-02,1.965072564780712128e-02,-9.833150543272495270e-03,9.685239195823669434e-02,1.865961006842553616e-03,-8.931995183229446411e-02
2.602131292223930359e-02,4.072361439466476440e-02,2.459775889292359352e-03,-9.826644510030746460e-02,4.627731442451477051e-02,2.559447661042213440e-02,1.339758466929197311e-02,-7.527646422386169434e-02,-9.352839738130569458e-02,-1.803823374211788177e-02,-1.328134536743164062e-01,1.759926602244377136e-02,4.784552007913589478e-02,4.670638963580131531e-02,-9.768218547105789185e-02,-1.714929752051830292e-02,-5.580713972449302673e-02,4.661168158054351807e-02,7.512436807155609131e-02,-2.158593386411666870e-02
1.095536649227142334e-01,3.513101488351821899e-02,3.105079010128974915e-02,3.003603033721446991e-02,-8.584102988243103027e-02,-2.907296456396579742e-02,8.139551430940628052e-02,6.341359019279479980e-02,3.331749513745307922e-02,9.004403837025165558e-03,-6.316592544317245483e-02,1.106151491403579712e-01,-4.435811936855316162e-02,9.361613541841506958e-02,2.467435598373413086e-02,-1.147660799324512482e-02,-1.064644474536180496e-02,-1.222664192318916321e-01,-8.456170558929443359e-02,-1.763153634965419769e-02
-6.406605243682861328e-02,-1.684591919183731079e-02,7.014499860815703869e-04,7.761018723249435425e-02,1.183232590556144714e-01,-5.181423202157020569e-02,-3.713267296552658081e-02,-2.361916005611419678e-02,1.325108855962753296e-01,-6.221206113696098328e-02,4.832874238491058350e-02,-6.715051084756851196e-02,5.908288061618804932e-02,-1.147081106901168823e-01,1.618841663002967834e-02,-1.155692413449287415e-01,-4.122785106301307678e-02,3.705037385225296021e-02,1.587595418095588684e-02,-2.781871519982814789e-02
-9.738131612539291382e-02,6.791210733354091644e-03,1.069424441084265709e-03,9.212005883455276489e-02,6.670012953691184521e-05,-1.136539727449417114e-01,-6.724256090819835663e-04,-5.135247111320495605e-02,-8.115867525339126587e-02,5.571733228862285614e-03,1.653960719704627991e-02,4.436817765235900879e-02,4.485547170042991638e-02,-6.807064265012741089e-02,-6.816162727773189545e-03,-3.052834048867225647e-02,-1.560786180198192596e-02,5.128542706370353699e-02,-5.293813720345497131e-02,2.163091860711574554e-02
-3.950443863868713379e-02,-8.706670254468917847e-02,2.472950518131256104e-02,-3.513884544372558594e-02,1.230352837592363358e-02,-5.982780829071998596e-02,4.586697742342948914e-02,2.816613204777240753e-02,1.511550042778253555e-02,1.335407607257366180e-02,1.174603849649429321e-01,-8.553127199411392212e-02,-6.745320558547973633e-02,1.253535151481628418e-01,-5.016401410102844238e-02,-7.465557008981704712e-02,2.537521719932556152e-02,4.780276492238044739e-02,4.809507727622985840e-02,-1.930178701877593994e-02
2.716557495296001434e-02,4.304545745253562927e-02,-8.103267103433609009e-02,1.186802089214324951e-01,-4.463263973593711853e-02,1.361733209341764450e-02,-9.608469158411026001e-02,7.355482876300811768e-02,9.918402135372161865e-02,1.555574871599674225e-02,2.775463461875915527e-02,-7.179656624794006348e-02,5.364340543746948242e-02,2.137163840234279633e-02,4.080144315958023071e-02,-5.527732893824577332e-02,-1.369389519095420837e-02,9.218135476112365723e-02,-5.649866163730621338e-02,4.814513493329286575e-03
1.086958497762680054e-02,-7.180793583393096924e-02,4.464037716388702393e-03,1.268506199121475220e-01,1.575719565153121948e-02,-4.539988189935684204e-02,-3.489369526505470276e-02,5.553949251770973206e-02,1.251101493835449219e-02,5.921335145831108093e-02,1.341704279184341431e-01,1.990733854472637177e-02,3.828585147857666016e-03,1.182734128087759018e-02,7.397091481834650040e-03,-2.390180714428424835e-02,-2.148913033306598663e-02,1.032124925404787064e-02,-8.401922881603240967e-02,7.784322649240493774e-02
-1.234205290675163269e-01,8.272767066955566406e-02,1.093740016222000122e-01,-4.790056962519884109e-03,-4.379461705684661865e-02,-2.714456059038639069e-02,3.080663457512855530e-02,-4.682603478431701660e-02,1.521830856800079346e-01,-3.455883264541625977e-02,1.591298878192901611e-01,4.041044786572456360e-02,-7.543962448835372925e-03,-5.981354787945747375e-02,9.536062180995941162e-02,-4.754724726080894470e-02,-2.011613175272941589e-02,-2.388082444667816162e-03,4.737269878387451172e-02,-5.700404942035675049e-02
-3.536492213606834412e-02,1.975102163851261139e-02,1.880114711821079254e-02,-2.336413413286209106e-02,-8.299337327480316162e-02,3.157896548509597778e-02,4.097657650709152222e-02,-6.127251312136650085e-02,1.659408360719680786e-01,-5.827063322067260742e-02,3.131251037120819092e-02,9.892111271619796753e-02,-7.337153074331581593e-04,9.778838604688644409e-02,-1.243618130683898926e-01,-9.762848913669586182e-02,3.852031379938125610e-02,9.279308468103408813e-02,-5.534017086029052734e-02,-2.292814664542675018e-02
4.203982651233673096e-02,-2.446000091731548309e-02,6.070405244827270508e-02,1.952460594475269318e-02,3.231815248727798462e-02,-6.035481393337249756e-02,6.817308068275451660e-02,6.499034166336059570e-02,5.343766510486602783e-02,-2.769790776073932648e-02,2.150920480489730835e-01,2.778713777661323547e-02,4.258791357278823853e-02,-5.386155564337968826e-03,6.793999671936035156e-02,-6.497705727815628052e-02,-1.244994699954986572e-01,-4.304012749344110489e-03,-1.242790371179580688e-01,-6.144187878817319870e-03
-7.740756869316101074e-02,6.719768792390823364e-02,7.488978654146194458e-02,-7.780701667070388794e-02,1.109615191817283630e-01,-1.319715380668640137e-01,-2.996552735567092896e-02,-8.498123288154602051e-02,2.977604605257511139e-02,7.623964548110961914e-02,6.629776954650878906e-02,-4.481824859976768494e-02,9.075029939413070679e-02,-7.714790105819702148e-02,4.767859727144241333e-02,-8.692613989114761353e-02,5.036612600088119507e-02,5.918092653155326843e-02,-9.858792275190353394e-02,-8.519839495420455933e-02
-8.442822843790054321e-02,-7.155843079090118408e-03,9.597339481115341187e-02,-7.655379921197891235e-02,7.772851735353469849e-03,-7.580327987670898438e-02,1.312716156244277954e-01,3.049715608358383179e-02,1.700065732002258301e-01,1.166281476616859436e-02,8.086323738098144531e-02,1.006264463067054749e-01,-3.382189944386482239e-02,-2.022128179669380188e-02,-9.142924845218658447e-02,-8.867155760526657104e-02,-1.929145492613315582e-02,-3.530797781422734261e-03,-5.058459471911191940e-03,-3.452593833208084106e-02
7.248881459236145020e-02,-3.603428602218627930e-02,-6.223930045962333679e-03,7.368244230747222900e-02,9.105729311704635620e-02,-8.354995399713516235e-02,2.238044515252113342e-02,-8.753383532166481018e-03,9.494990855455398560e-02,3.871840983629226685e-02,4.515287280082702637e-02,1.081716790795326233e-01,1.278847604990005493e-01,-1.475716382265090942e-01,9.724991768598556519e-02,2.340621873736381531e-02,4.936851933598518372e-02,-3.183282166719436646e-02,-9.723689407110214233e-02,-6.846506148576736450e-02
-4.647420346736907959e-02,-2.130508190020918846e-03,4.649771843105554581e-03,7.085596024990081787e-02,1.364952921867370605e-01,-7.788454741239547729e-02,1.802084967494010925e-02,-1.929783448576927185e-02,-1.809522323310375214e-02,3.280094638466835022e-02,1.810258370824158192e-03,-4.840299952775239944e-03,-9.088771417737007141e-03,6.627235561609268188e-03,-2.441982552409172058e-02,-6.850254535675048828e-02,5.525740236043930054e-02,-6.474016606807708740e-02,-1.696843281388282776e-02,-4.487360641360282898e-02
-4.261392727494239807e-02,-9.719182737171649933e-03,9.848062694072723389e-02,9.413849562406539917e-03,6.185021623969078064e-02,-1.664259582757949829e-01,1.064310669898986816e-01,5.362562462687492371e-02,1.783206462860107422e-01,-7.865826785564422607e-02,1.252209544181823730e-01,-1.985779404640197754e-02,-8.892802894115447998e-02,-1.097011566162109375e-01,-1.172891929745674133e-01,2.594441361725330353e-02,-2.607496269047260284e-02,-1.094978023320436478e-02,3.998804837465286255e-02,-4.067789390683174133e-02
1.009731069207191467e-01,-2.327274531126022339e-02,4.971325397491455078e-02,-4.945583641529083252e-02,1.035820692777633667e-01,-4.967433586716651917e-02,-6.214512884616851807e-02,-4.278824850916862488e-02,1.098640114068984985e-01,3.311695158481597900e-02,5.514848977327346802e-02,3.773292154073715210e-02,-2.909892983734607697e-02,-9.362699836492538452e-02,-5.422815307974815369e-02,3.657677676528692245e-03,-8.358086645603179932e-02,-1.445245593786239624e-01,-3.719520196318626404e-02,2.531707845628261566e-02
4.041090607643127441e-02,-4.716911166906356812e-02,2.185377525165677071e-03,-9.548164159059524536e-02,9.713605977594852448e-03,5.672543868422508240e-02,-7.494300603866577148e-03,3.879559924826025963e-03,3.738046064972877502e-02,7.807661592960357666e-02,1.013358384370803833e-01,-1.135455444455146790e-01,-1.605406776070594788e-02,-1.274763345718383789e-01,8.779131621122360229e-02,5.362142808735370636e-03,3.936962410807609558e-02,2.575600706040859222e-02,1.085524857044219971e-01,1.016575843095779419e-01
9.681507945060729980e-03,-2.017688006162643433e-02,4.284387454390525818e-02,-5.293941497802734375e-02,-2.939374884590506554e-03,2.586720511317253113e-02,6.686799228191375732e-02,3.096157126128673553e-02,4.646973311901092529e-02,-1.423424482345581055e-02,-3.836210817098617554e-03,3.581924363970756531e-02,8.077967911958694458e-02,-9.173584170639514923e-03,3.964317217469215393e-02,1.021167561411857605e-01,3.455667197704315186e-02,3.045398369431495667e-02,-4.966405034065246582e-02,1.272452622652053833e-01
3.083714470267295837e-02,-5.286655947566032410e-02,1.313821375370025635e-01,3.948605805635452271e-02,-8.918368071317672729e-02,1.239271182566881180e-02,-5.799574404954910278e-02,-3.955208137631416321e-02,3.536487370729446411e-02,-7.087831199169158936e-02,2.335247583687305450e-02,-9.854972362518310547e-02,-1.133415102958679199e-01,4.389280453324317932e-03,-7.592407613992691040e-02,-1.265456974506378174e-01,-4.526085406541824341e-02,-9.982306510210037231e-02,1.167980395257472992e-02,7.681876420974731445e-02
-1.301278322935104370e-01,3.748493269085884094e-02,-6.090430915355682373e-02,-8.074260503053665161e-02,-5.662684515118598938e-02,-1.721015945076942444e-02,7.064478006213903427e-03,1.018224004656076431e-02,1.086169108748435974e-01,-6.470987573266029358e-03,-3.665656968951225281e-02,1.091600395739078522e-02,-2.576968073844909668e-02,1.212510094046592712e-01,5.806644633412361145e-02,5.747112445533275604e-03,3.444742038846015930e-02,-3.282882645726203918e-02,-7.950408756732940674e-02,4.045385122299194336e-02
5.402928963303565979e-02,6.813243031501770020e-02,5.028301849961280823e-02,6.549633294343948364e-02,7.997180521488189697e-02,-6.006401404738426208e-02,-5.914627388119697571e-02,1.243969309143722057e-03,7.972015440464019775e-02,2.265491336584091187e-02,-2.280250750482082367e-02,-7.111112028360366821e-02,-7.075472269207239151e-03,-1.352604664862155914e-02,-8.123981766402721405e-03,-1.094205752015113831e-01,-9.550501406192779541e-02,-3.523540869355201721e-02,-3.048967570066452026e-02,1.573875918984413147e-02
-2.711780928075313568e-02,-7.183637470006942749e-02,4.335108026862144470e-02,6.709604524075984955e-03,-1.341956853866577148e-02,1.679304614663124084e-02,-1.493916846811771393e-02,2.029633708298206329e-02,7.112880051136016846e-02,-4.806888103485107422e-02,-4.168654233217239380e-02,-2.555736526846885681e-02,-4.685333743691444397e-02,-2.280931733548641205e-02,5.843932926654815674e-02,1.174779385328292847e-01,-4.672451689839363098e-02,-7.835715264081954956e-02,4.857099149376153946e-03,9.112439304590225220e-02
-6.842923164367675781e-02,2.778932824730873108e-02,-5.480391159653663635e-02,2.298493124544620514e-02,-7.075584959238767624e-03,1.218295097351074219e-01,-2.105296216905117035e-02,-5.093211680650711060e-02,3.659239411354064941e-02,-4.677623882889747620e-02,-7.254861760884523392e-03,-4.243838414549827576e-02,-4.940452985465526581e-03,-7.160790264606475830e-02,1.011576969176530838e-02,-4.204455763101577759e-02,4.055075347423553467e-02,6.077325716614723206e-02,-1.018534135073423386e-02,-7.026606798171997070e-02
-7.696083933115005493e-02,9.206169098615646362e-02,3.260850533843040466e-02,-1.195512898266315460e-02,-6.001727655529975891e-03,1.363551244139671326e-02,-6.882201880216598511e-02,-6.117796525359153748e-02,6.420303881168365479e-02,-2.642763033509254456e-02,-7.015585433691740036e-03,-1.004672572016716003e-01,7.393473386764526367e-02,1.168617904186248779e-01,-6.961928308010101318e-02,7.374617853201925755e-04,-8.115720003843307495e-02,1.641210913658142090e-02,7.852974347770214081e-03,-1.313247382640838623e-01
1.090552378445863724e-02,-4.978678375482559204e-02,1.005869805812835693e-01,9.537126123905181885e-02,1.117673739790916443e-01,1.066115591675043106e-02,6.215508654713630676e-02,-8.097237348556518555e-02,5.057315155863761902e-02,9.575233608484268188e-02,-6.456238031387329102e-02,4.001732170581817627e-02,-5.188916251063346863e-02,4.582908004522323608e-02,-7.934848964214324951e-02,-8.627033978700637817e-02,4.160999134182929993e-02,-3.969825804233551025e-02,4.025813937187194824e-02,-5.118362605571746826e-02
9.398657828569412231e-02,1.267067939043045044e-01,-5.835318937897682190e-02,-9.899279475212097168e-02,-9.484818577766418457e-02,5.354782193899154663e-02,1.415213663130998611e-02,-3.075665095821022987e-03,-5.562477186322212219e-02,-3.630931302905082703e-02,9.074785560369491577e-02,5.743164196610450745e-02,1.063744723796844482e-01,-6.164481490850448608e-02,-8.460664004087448120e-02,-1.181562896817922592e-02,-2.220437675714492798e-02,5.686429142951965332e-02,3.832774981856346130e-02,4.681731574237346649e-03
6.080033257603645325e-02,-5.172826349735260010e-02,-8.743053674697875977e-02,-1.720363087952136993e-02,-3.407715260982513428e-02,-6.771905720233917236e-02,8.390892297029495239e-02,3.140329197049140930e-02,4.438596311956644058e-03,4.056224226951599121e-02,1.048976322636008263e-03,-4.659825190901756287e-02,-8.147604763507843018e-02,-9.834181517362594604e-02,-1.177207380533218384e-02,8.452967740595340729e-03,-1.030011475086212158e-01,-9.146609157323837280e-02,3.610438108444213867e-02,1.015966944396495819e-02
-2.161126956343650818e-02,6.521224975585937500e-02,4.025200009346008301e-02,3.259624540805816650e-02,4.666370898485183716e-02,5.948856472969055176e-03,2.880076505243778229e-02,-9.240576624870300293e-02,-4.996549710631370544e-02,-2.176879160106182098e-02,-1.858487725257873535e-02,-2.567521668970584869e-02,-4.079659283161163330e-02,7.057387381792068481e-02,-1.292003840208053589e-01,-8.015525527298450470e-03,8.033912628889083862e-03,9.563773870468139648e-03,2.228301204741001129e-02,-7.071327883750200272e-03
-4.381492361426353455e-02,-1.358781605958938599e-01,-4.853784292936325073e-02,-2.753471210598945618e-02,-8.653718978166580200e-03,6.880593020468950272e-03,1.391554251313209534e-02,3.489085659384727478e-02,5.801341682672500610e-02,-2.927760034799575806e-02,9.512549638748168945e-02,-4.674217849969863892e-02,3.498819842934608459e-02,-5.380259826779365540e-02,1.091584339737892151e-01,-5.121620371937751770e-02,-4.929874092340469360e-02,-1.362496800720691681e-02,8.277348428964614868e-02,-6.752346456050872803e-02
2.475903928279876709e-02,-5.924515798687934875e-02,-6.032387539744377136e-02,-2.502875402569770813e-02,-6.572530604898929596e-03,9.010532498359680176e-02,-1.214220449328422546e-01,1.056693028658628464e-02,7.967478036880493164e-02,-5.169731006026268005e-02,-2.626620978116989136e-02,-8.451968431472778320e-02,-9.902126342058181763e-02,2.747274003922939301e-02,-3.745480254292488098e-02,-8.536281436681747437e-02,8.975771069526672363e-02,3.160338848829269409e-03,1.122194528579711914e-01,1.125011295080184937e-01
8.648106455802917480e-02,-8.999771438539028168e-03,7.044719904661178589e-02,5.394601263105869293e-03,2.660981379449367523e-02,2.492726221680641174e-02,3.640003968030214310e-03,-8.059804141521453857e-02,-8.616351336240768433e-02,-5.126842483878135681e-02,3.919500112533569336e-02,5.894881114363670349e-02,1.235450506210327148e-01,-3.992423787713050842e-02,3.699284419417381287e-02,-2.541942894458770752e-02,-1.900110952556133270e-02,-1.064753383398056030e-01,-2.742828987538814545e-02,3.404512628912925720e-02
1.270358115434646606e-01,-8.615010231733322144e-02,-9.169247001409530640e-02,1.137691214680671692e-01,3.528065606951713562e-02,1.549125276505947113e-02,5.097319558262825012e-02,-2.945554675534367561e-03,-6.224418804049491882e-02,8.238824456930160522e-02,5.651352182030677795e-02,-3.519520536065101624e-02,2.812653034925460815e-02,-8.572316914796829224e-02,9.118332713842391968e-02,7.133438438177108765e-02,1.369106173515319824e-01,6.892545521259307861e-02,6.221181526780128479e-02,9.590329229831695557e-02
3.066727367695420980e-04,-7.782153785228729248e-03,-1.058713421225547791e-01,1.066373959183692932e-01,6.573180854320526123e-02,1.142427674494683743e-03,6.785050034523010254e-02,8.596877008676528931e-02,7.225957233458757401e-03,-8.943234570324420929e-03,-8.905363082885742188e-02,-1.202116627246141434e-02,4.944472387433052063e-02,9.193067997694015503e-02,-4.414363950490951538e-02,2.231279388070106506e-02,-6.394170224666595459e-02,-6.479396671056747437e-02,-1.118516433052718639e-03,-3.150854259729385376e-02
-9.574399888515472412e-02,-1.825075224041938782e-02,2.037640474736690521e-02,7.114103436470031738e-02,9.989775717258453369e-02,-5.843233317136764526e-02,-4.895687848329544067e-02,1.025191619992256165e-01,1.376786231994628906e-01,6.153678521513938904e-02,3.068947046995162964e-02,1.866265572607517242e-02,-9.878612309694290161e-02,-5.832006037235260010e-02,-7.105696946382522583e-02,8.316500484943389893e-02,-2.869438007473945618e-02,9.747674316167831421e-02,-8.463649451732635498e-02,-8.204109966754913330e-02
-2.946657128632068634e-02,-9.067910909652709961e-02,2.478648349642753601e-02,-1.476057153195142746e-02,-1.783417351543903351e-02,-2.390303462743759155e-02,-4.099315032362937927e-03,-4.754069726914167404e-03,4.139510449022054672e-03,4.828926920890808105e-02,1.988484114408493042e-01,-1.776158437132835388e-02,2.044984325766563416e-02,-3.680672496557235718e-02,1.050305645912885666e-02,-2.046279609203338623e-02,2.007879316806793213e-02,-1.891753752715885639e-03,5.944516882300376892e-02,-2.776450105011463165e-02
5.965661257505416870e-03,-6.527907401323318481e-02,-4.916131868958473206e-02,2.640741318464279175e-02,8.739435672760009766e-02,-5.802843719720840454e-02,-5.498745292425155640e-02,-8.949315547943115234e-02,2.868851460516452789e-02,-1.249534487724304199e-01,1.357411444187164307e-01,-8.227910101413726807e-02,1.502362787723541260e-01,-9.198145568370819092e-02,-4.069656506180763245e-02,-2.923062443733215332e-02,6.998020410537719727e-02,-5.671556666493415833e-02,6.234902516007423401e-02,-2.192698605358600616e-02
5.047701671719551086e-02,-3.967306762933731079e-02,-8.548127859830856323e-02,-1.664098165929317474e-02,1.055136770009994507e-01,-2.992592751979827881e-03,-5.220006033778190613e-02,4.114481434226036072e-02,1.225992366671562195e-01,-9.561595320701599121e-02,5.140563938766717911e-03,8.605995774269104004e-02,-1.637049019336700439e-02,-4.070539958775043488e-03,-1.122376546263694763e-01,-1.133373193442821503e-02,-2.711995504796504974e-02,9.716192260384559631e-03,-8.055163919925689697e-02,-1.405669152736663818e-01
-2.447044290602207184e-02,5.058567598462104797e-02,-7.085582613945007324e-02,8.621937781572341919e-02,5.267037451267242432e-02,7.234406657516956329e-03,3.826970607042312622e-02,2.129283919930458069e-02,9.988759458065032959e-02,4.928737133741378784e-02,3.374842554330825806e-02,3.645129501819610596e-02,-3.219454735517501831e-02,-2.017852850258350372e-02,8.528025448322296143e-02,5.106939747929573059e-02,-1.082282885909080505e-01,-1.638110168278217316e-02,-8.498937636613845825e-02,-4.082299023866653442e-02
1.455963850021362305e-01,9.077505022287368774e-02,-1.306537538766860962e-01,-1.113446876406669617e-01,8.292394131422042847e-02,4.018864780664443970e-02,1.000576913356781006e-01,1.150118634104728699e-01,1.415092498064041138e-01,-1.031550690531730652e-01,1.731498390436172485e-01,1.055483371019363403e-01,8.077982068061828613e-02,3.223419934511184692e-02,-8.845225721597671509e-02,4.840725287795066833e-02,-8.517736941576004028e-02,-7.968430221080780029e-02,1.141892597079277039e-01,-3.397108986973762512e-02
1.148667037487030029e-01,-5.859727039933204651e-03,-3.401457890868186951e-02,3.414191305637359619e-02,5.850415304303169250e-02,-1.169502586126327515e-01,6.846037507057189941e-02,-5.112543329596519470e-02,1.310404688119888306e-01,-5.616916716098785400e-02,9.470386058092117310e-02,2.052456885576248169e-02,8.843174576759338379e-02,-2.110874652862548828e-02,-2.501869760453701019e-02,1.302549540996551514e-01,-1.353543847799301147e-01,2.364716492593288422e-02,6.804872304201126099e-02,-7.615093141794204712e-02
6.099783815443515778e-03,-1.041367929428815842e-02,1.510756835341453552e-02,-6.254081428050994873e-02,1.612221896648406982e-01,-3.051110915839672089e-02,7.492547482252120972e-02,-1.146511919796466827e-02,1.150830611586570740e-01,-2.362652868032455444e-02,8.162976801395416260e-02,-1.639824360609054565e-02,1.658577285706996918e-02,-6.878505647182464600e-02,2.716308459639549255e-02,2.792094461619853973e-02,-5.722735077142715454e-02,-1.515637189149856567e-01,4.489769041538238525e-02,-8.126071095466613770e-02
8.143937215209007263e-03,-7.704030722379684448e-02,-7.381159812211990356e-02,-4.107138141989707947e-02,7.287409156560897827e-02,-4.944358021020889282e-02,4.525855183601379395e-02,4.326218366622924805e-02,1.149613484740257263e-01,-7.423795759677886963e-02,7.953015714883804321e-02,7.275857031345367432e-02,5.192235484719276428e-02,1.940947771072387695e-02,-4.596290364861488342e-02,-9.958567470312118530e-02,2.090942114591598511e-02,-7.573125511407852173e-02,6.398510187864303589e-02,5.998024716973304749e-02
9.452422708272933960e-02,6.337990984320640564e-03,4.436415806412696838e-02,5.783667042851448059e-02,-3.748572245240211487e-02,-1.057868674397468567e-01,-1.183897480368614197e-01,-9.800243377685546875e-02,8.171154558658599854e-02,7.591883186250925064e-03,5.238386616110801697e-02,7.233241922222077847e-05,3.728835284709930420e-02,4.747474566102027893e-02,3.226181864738464355e-02,6.478577386587858200e-03,2.004482410848140717e-02,-7.807882130146026611e-02,5.127397179603576660e-02,-8.807066082954406738e-02
2.545936778187751770e-02,2.481061732396483421e-03,8.047470450401306152e-02,1.705287583172321320e-02,4.427612945437431335e-02,-1.053066402673721313e-01,-1.031786296516656876e-02,6.873089075088500977e-02,1.653125584125518799e-01,-4.562876746058464050e-02,6.860100477933883667e-02,-7.351646572351455688e-02,5.133380368351936340e-02,-4.830790311098098755e-02,9.859278798103332520e-02,1.398922055959701538e-01,-5.991677194833755493e-02,-3.414267301559448242e-02,6.429684162139892578e-02,8.331521600484848022e-02
-5.332804843783378601e-02,8.806615136563777924e-03,7.863734662532806396e-02,1.904945820569992065e-02,6.242514774203300476e-02,-1.617102324962615967e-02,-3.477333113551139832e-02,4.689799249172210693e-02,3.479306772351264954e-02,4.733801633119583130e-02,7.415036112070083618e-02,-2.299409918487071991e-02,-4.292729869484901428e-02,5.278084054589271545e-02,8.261830359697341919e-02,3.722088783979415894e-02,2.427146025002002716e-02,-2.180396951735019684e-02,2.137169428169727325e-02,6.499455310404300690e-03
-3.729366138577461243e-02,1.905860193073749542e-02,4.861430788878351450e-04,-4.359268397092819214e-02,8.490358293056488037e-02,-1.846542395651340485e-02,1.102942507714033127e-02,9.082083590328693390e-03,5.978667736053466797e-02,9.611376374959945679e-02,4.425428807735443115e-02,4.175226762890815735e-02,-4.536741226911544800e-02,3.109561838209629059e-02,6.143832579255104065e-02,-6.700077094137668610e-03,1.144859120249748230e-01,3.729601204395294189e-02,-2.462945319712162018e-02,9.045101702213287354e-02
1.295268982648849487e-01,-1.205261424183845520e-02,1.009969189763069153e-01,-3.246615454554557800e-02,-5.632690712809562683e-02,-6.241607666015625000e-02,-2.142430469393730164e-02,-5.267979204654693604e-02,-9.631735086441040039e-02,1.452213525772094727e-02,2.758778259158134460e-02,-7.688429206609725952e-02,9.545236080884933472e-02,3.857582435011863708e-02,2.745127305388450623e-02,-5.253316462039947510e-02,8.215559273958206177e-02,-5.074790120124816895e-02,1.393272131681442261e-01,5.932623986154794693e-03
1.685595698654651642e-02,-2.668770030140876770e-02,1.212041750550270081e-01,-1.117268018424510956e-02,8.551862090826034546e-02,-1.958589535206556320e-03,7.936430722475051880e-02,-6.135720387101173401e-02,4.919916391372680664e-02,5.801095161586999893e-03,-5.615911632776260376e-02,1.154701039195060730e-01,4.207214713096618652e-02,-2.002106979489326477e-02,1.411320921033620834e-02,-1.144792214035987854e-01,-8.069463074207305908e-02,-3.038274310529232025e-02,2.643976546823978424e-02,1.079416945576667786e-01
1.453298702836036682e-02,4.697854816913604736e-02,9.814660996198654175e-02,3.159876167774200439e-02,-4.927204921841621399e-02,-2.358148805797100067e-03,-2.007059380412101746e-02,-3.516839817166328430e-02,1.110011190176010132e-01,-1.048311889171600342e-01,-7.474112510681152344e-02,8.204890042543411255e-02,4.394129663705825806e-02,-2.137530595064163208e-03,4.953994229435920715e-02,8.189852535724639893e-02,-2.163657173514366150e-02,9.321264177560806274e-02,-4.155574738979339600e-02,3.002426587045192719e-02
-8.339070528745651245e-02,-1.916025206446647644e-02,-6.179837509989738464e-02,-4.215483367443084717e-02,3.956771455705165863e-03,8.003754913806915283e-02,4.324329644441604614e-02,-7.098301500082015991e-02,6.320853717625141144e-03,2.963774092495441437e-02,6.645350158214569092e-02,5.255491286516189575e-02,-8.528348803520202637e-02,1.867173239588737488e-02,-4.386280104517936707e-02,1.067148149013519287e-01,2.855383045971393585e-02,8.318998664617538452e-02,2.646098472177982330e-02,2.477866783738136292e-02
-4.368088766932487488e-02,2.089971210807561874e-03,3.323214873671531677e-02,8.231910876929759979e-03,-5.709976702928543091e-02,1.295517534017562866e-01,4.304227605462074280e-02,1.183319017291069031e-01,-9.574324637651443481e-02,5.089610442519187927e-02,-1.456058025360107422e-01,9.851903468370437622e-02,6.267560273408889771e-02,-2.371087297797203064e-02,-1.119614299386739731e-02,-5.810490250587463379e-02,1.161275580525398254e-01,8.654004335403442383e-02,-1.148949470371007919e-02,-6.498335860669612885e-03
-5.389140546321868896e-02,2.021175809204578400e-02,-4.833525046706199646e-02,-5.065895244479179382e-02,1.415846496820449829e-01,8.879490196704864502e-03,-7.702616602182388306e-02,2.899934165179729462e-02,7.070903666317462921e-03,3.372379811480641365e-03,-9.196576476097106934e-02,-6.723298132419586182e-02,-1.850957050919532776e-02,3.829233720898628235e-02,-3.133919462561607361e-02,-4.635873716324567795e-03,-2.156317047774791718e-02,-4.910444840788841248e-02,-3.684416785836219788e-02,1.111585572361946106e-01
1.545124780386686325e-02,-3.157888725399971008e-02,-3.159350156784057617e-02,5.971546098589897156e-02,1.233037263154983521e-01,-4.960280377417802811e-03,-7.389631122350692749e-02,1.488418132066726685e-02,3.640025481581687927e-02,8.640475571155548096e-03,8.326911181211471558e-02,1.319620292633771896e-02,-1.188732311129570007e-01,1.391050815582275391e-01,-4.455155879259109497e-02,-1.245384365320205688e-01,6.573224812746047974e-02,7.865115255117416382e-02,8.373075164854526520e-03,5.703993886709213257e-02
-9.241642802953720093e-02,-1.044213920831680298e-01,-3.403661772608757019e-02,-9.274154156446456909e-02,-2.119186148047447205e-02,-5.297177657485008240e-02,-4.627030715346336365e-02,-1.574392989277839661e-02,-1.182384975254535675e-02,-5.246426537632942200e-02,2.700388990342617035e-02,-7.996997982263565063e-02,-6.749150156974792480e-02,9.647564962506294250e-03,-1.174719408154487610e-01,-3.510173410177230835e-02,-2.493992215022444725e-03,-9.059075266122817993e-02,7.578571140766143799e-02,1.638173311948776245e-02
5.422625690698623657e-02,7.473307847976684570e-02,-1.106320694088935852e-02,-3.886681981384754181e-03,-7.878376543521881104e-02,-6.649436056613922119e-02,-1.907641813158988953e-02,-1.839651167392730713e-02,8.843342959880828857e-02,2.124634757637977600e-02,3.705462813377380371e-02,-3.557049669325351715e-03,-2.806990593671798706e-02,-4.241682589054107666e-03,-2.282553166151046753e-02,-5.058870092034339905e-02,-2.873376756906509399e-02,-1.503616943955421448e-02,2.102558501064777374e-02,8.846589922904968262e-02
-1.310448348522186279e-02,-4.423657432198524475e-02,-8.403120934963226318e-02,8.864157646894454956e-02,5.325230583548545837e-02,-6.963633466511964798e-03,-1.176661550998687744e-01,-5.870990827679634094e-02,1.220507845282554626e-01,6.692280620336532593e-02,-3.555863723158836365e-02,9.816964156925678253e-03,1.059758365154266357e-01,2.260893397033214569e-02,6.940536946058273315e-02,4.534889757633209229e-02,2.352259680628776550e-02,5.338060110807418823e-02,1.042454764246940613e-01,-4.104811325669288635e-02
1.270636618137359619e-01,-4.009160771965980530e-02,1.220027264207601547e-02,-5.680987983942031860e-02,5.079431086778640747e-02,-4.452913999557495117e-02,5.462006200104951859e-03,-9.793663024902343750e-02,-5.876306816935539246e-02,3.441318497061729431e-02,-8.034288883209228516e-02,7.862063357606530190e-04,5.003124475479125977e-02,-5.047815293073654175e-02,-1.790707558393478394e-02,2.742590010166168213e-02,9.672176837921142578e-02,1.815632358193397522e-02,8.520035445690155029e-02,-1.136286631226539612e-01
6.042272970080375671e-02,-3.243878111243247986e-02,1.863619871437549591e-02,6.481770426034927368e-02,3.842485323548316956e-02,-4.506904631853103638e-02,-1.097012385725975037e-01,-9.703107178211212158e-02,-4.734320100396871567e-03,1.258236765861511230e-01,-1.223284471780061722e-02,-1.322324275970458984e-01,1.535173878073692322e-02,3.574883565306663513e-02,-3.257075697183609009e-02,4.225922003388404846e-02,1.465961039066314697e-01,-1.003702729940414429e-01,-1.799602992832660675e-02,-5.808074027299880981e-02
9.076101332902908325e-02,-1.221400033682584763e-02,-2.788558974862098694e-02,8.207223564386367798e-02,-3.876967728137969971e-02,-1.339499503374099731e-01,-6.200134754180908203e-02,-2.452286146581172943e-02,-1.323699653148651123e-01,4.634859785437583923e-02,1.092041209340095520e-01,-3.916718997061252594e-03,-1.191323846578598022e-01,4.198685660958290100e-02,-5.280569661408662796e-03,5.896317586302757263e-02,2.191018499433994293e-02,-5.110075697302818298e-02,4.925343766808509827e-02,-4.858191311359405518e-02
-5.353500321507453918e-02,2.440983429551124573e-02,1.922876387834548950e-02,-5.890398845076560974e-02,1.013860702514648438e-01,5.416182801127433777e-02,6.457189470529556274e-02,-6.029352173209190369e-02,-5.315718427300453186e-02,-9.296849370002746582e-02,2.914881333708763123e-02,4.285259172320365906e-02,1.079919487237930298e-01,-6.820133328437805176e-02,-1.218666955828666687e-01,-2.452806383371353149e-02,-1.244459599256515503e-01,-2.712643705308437347e-02,1.376646012067794800e-01,-2.630368992686271667e-02
-2.373214811086654663e-02,-1.132411975413560867e-02,3.089499101042747498e-02,1.169632077217102051e-01,-6.907233595848083496e-02,4.511984437704086304e-02,-7.260160893201828003e-02,-8.382872492074966431e-02,1.885145320557057858e-03,-2.276917546987533569e-02,1.428045481443405151e-01,-1.813187845982611179e-03,-1.918557449243962765e-03,-7.887317799031734467e-03,8.441521227359771729e-02,-1.264640875160694122e-02,-4.470804706215858459e-03,-3.596578910946846008e-02,8.415307104587554932e-02,2.453767322003841400e-02
1.380984485149383545e-02,-8.088773488998413086e-02,2.147981896996498108e-02,9.545382112264633179e-02,8.867138996720314026e-03,-1.950268447399139404e-02,-3.794890269637107849e-02,1.228844746947288513e-01,-2.627283893525600433e-02,-8.531333506107330322e-02,3.409891575574874878e-02,-8.135309070348739624e-02,-9.338347613811492920e-02,1.460907608270645142e-02,1.077745482325553894e-02,-6.151167303323745728e-02,-1.033889949321746826e-01,1.246929094195365906e-01,1.208766829222440720e-02,-8.204296231269836426e-02
-6.404517684131860733e-03,1.289487443864345551e-02,-5.854301527142524719e-02,3.879326209425926208e-02,5.913109332323074341e-02,-3.382307244464755058e-03,-5.692023038864135742e-02,4.612318053841590881e-02,1.013417914509773254e-01,6.041068583726882935e-02,8.627562783658504486e-03,2.235465496778488159e-02,-4.216541349887847900e-02,1.172589510679244995e-01,6.373991817235946655e-02,8.258343487977981567e-02,4.136555269360542297e-02,7.690057158470153809e-02,-3.557352349162101746e-02,-1.234343275427818298e-01
1.540022995322942734e-02,-5.739105865359306335e-02,1.878366246819496155e-02,9.611587971448898315e-02,-3.167046606540679932e-02,1.579300127923488617e-02,6.467484682798385620e-02,2.031227014958858490e-02,7.797011733055114746e-02,4.909067973494529724e-02,-3.758189454674720764e-02,6.722799688577651978e-02,2.696893922984600067e-02,-1.041693892329931259e-02,-6.006181705743074417e-03,-5.105357244610786438e-02,-5.094541609287261963e-02,-1.180569082498550415e-02,8.927655965089797974e-02,8.436132967472076416e-02
1.602568924427032471e-01,2.075319550931453705e-02,-9.660112857818603516e-02,1.012440398335456848e-01,-1.367119420319795609e-02,2.297398261725902557e-02,1.141710765659809113e-02,2.697288803756237030e-02,8.387754857540130615e-02,2.583094500005245209e-02,1.364899277687072754e-01,-3.773054108023643494e-02,8.075530827045440674e-02,-3.211161354556679726e-03,-1.323188543319702148e-01,9.198056161403656006e-02,5.797550827264785767e-02,-4.450599849224090576e-02,2.535864338278770447e-02,-1.076419726014137268e-01
-2.493389695882797241e-02,4.267475754022598267e-02,1.061398070305585861e-02,7.258022576570510864e-02,8.744316548109054565e-02,1.183878183364868164e-01,1.928250305354595184e-02,1.651707440614700317e-01,2.497910521924495697e-02,5.091710016131401062e-02,4.891590029001235962e-02,5.810714513063430786e-02,-6.543722003698348999e-02,-9.493371099233627319e-02,-8.097474277019500732e-02,3.409606963396072388e-02,-1.353300455957651138e-02,-4.711970686912536621e-02,6.184471398591995239e-02,-5.661408975720405579e-02
5.670897290110588074e-02,-6.704911589622497559e-02,-9.233524091541767120e-03,7.838051021099090576e-02,5.159633234143257141e-02,2.896076068282127380e-02,-4.482474178075790405e-02,4.349426180124282837e-02,4.360755905508995056e-02,6.412407755851745605e-02,8.179878816008567810e-03,-1.585218124091625214e-02,1.179667338728904724e-01,-1.516068279743194580e-01,-3.455289453268051147e-02,1.702140867710113525e-01,-1.193028539419174194e-01,-1.012014672160148621e-01,9.869542717933654785e-02,-6.412234902381896973e-02
1.215965673327445984e-02,1.041278764605522156e-01,-3.987053409218788147e-02,7.952628657221794128e-03,-2.599849738180637360e-02,6.880936771631240845e-02,5.161367356777191162e-02,1.874578297138214111e-01,9.527617692947387695e-02,4.207238182425498962e-02,1.718292087316513062e-01,-4.030797258019447327e-02,5.959289520978927612e-02,4.448379948735237122e-02,-5.547352880239486694e-02,6.826996058225631714e-02,7.779315114021301270e-02,-1.099997013807296753e-01,3.224332630634307861e-02,1.128911692649126053e-02
1.432393640279769897e-01,1.247218102216720581e-01,6.112825358286499977e-04,1.080798283219337463e-01,2.927320823073387146e-02,-2.236644178628921509e-02,-4.302142187952995300e-02,1.230994090437889099e-01,7.911463826894760132e-02,-3.898611292243003845e-02,9.001052379608154297e-02,1.860062964260578156e-02,-2.861897647380828857e-02,-9.383025765419006348e-02,4.779396578669548035e-02,8.320485800504684448e-02,-3.670193254947662354e-02,-2.656219303607940674e-01,1.325837373733520508e-01,-1.788279861211776733e-01
1.002943068742752075e-01,3.064613416790962219e-02,-1.327726524323225021e-02,-2.521329559385776520e-03,9.630534052848815918e-02,-1.672153174877166748e-02,4.134890064597129822e-02,8.851256221532821655e-02,7.216141372919082642e-02,-8.845989406108856201e-02,1.359968036413192749e-01,5.219777673482894897e-02,1.006579492241144180e-02,8.144063502550125122e-02,1.226439997553825378e-01,8.282100409269332886e-02,-3.146146982908248901e-02,-1.028184145689010620e-01,9.718576818704605103e-02,5.302872136235237122e-02
-7.204525172710418701e-04,-2.482967823743820190e-02,-7.939951866865158081e-02,-3.027479536831378937e-02,-2.455323189496994019e-02,-8.982735127210617065e-02,1.074261264875531197e-03,7.013076543807983398e-02,1.128830835223197937e-01,4.727095738053321838e-02,-1.987889036536216736e-02,-1.183435842394828796e-01,7.375328242778778076e-02,8.139211684465408325e-02,7.585650682449340820e-02,8.320296183228492737e-03,3.564957156777381897e-02,-1.942958384752273560e-01,5.448253452777862549e-02,-1.286356747150421143e-01
8.577820658683776855e-02,-7.140914909541606903e-03,6.498245149850845337e-02,2.802181430160999298e-02,8.287311345338821411e-02,-3.556103631854057312e-02,-3.009264543652534485e-02,4.755235463380813599e-02,9.230241179466247559e-02,1.216037664562463760e-02,5.239776335656642914e-03,3.372006863355636597e-02,3.581305220723152161e-02,5.729313567280769348e-02,-1.038802694529294968e-02,2.785341581329703331e-03,1.049002166837453842e-03,-1.395868659019470215e-01,-4.661687090992927551e-02,-4.247267544269561768e-02
-1.047646999359130859e-02,-1.892993599176406860e-01,-5.667306110262870789e-02,5.751983448863029480e-02,-5.213005840778350830e-02,3.233427647501230240e-03,6.416865158826112747e-03,-9.616643935441970825e-02,-2.881441451609134674e-02,-1.350035816431045532e-01,-4.703289363533258438e-03,3.723252192139625549e-02,3.944796696305274963e-02,-2.272523753345012665e-02,1.463227719068527222e-01,8.067438751459121704e-02,6.981333345174789429e-02,-6.291829049587249756e-02,-1.467556804418563843e-01,9.166833758354187012e-02
4.877504333853721619e-02,-2.899163588881492615e-02,-7.932497560977935791e-02,-9.580930322408676147e-02,-1.531256362795829773e-02,-7.318126410245895386e-02,-1.101543009281158447e-01,1.973991654813289642e-02,-7.065741717815399170e-02,-1.018064990639686584e-01,-5.834796465933322906e-03,-5.779624730348587036e-02,3.984688967466354370e-02,7.218028604984283447e-02,7.790146768093109131e-02,-7.386788725852966309e-02,5.157606303691864014e-02,4.697025287896394730e-03,-7.414801418781280518e-02,6.739808619022369385e-02
4.305670782923698425e-02,-7.320828735828399658e-02,3.119523636996746063e-02,2.855917625129222870e-02,-3.803335502743721008e-02,-3.415689244866371155e-02,-1.305502653121948242e-01,-9.698160737752914429e-02,8.815491944551467896e-02,2.017528377473354340e-02,-4.652444645762443542e-02,2.772475220263004303e-02,-2.378790453076362610e-02,9.793614037334918976e-03,1.098138988018035889e-01,2.452129125595092773e-02,5.404257029294967651e-02,-5.857441946864128113e-02,-3.753050044178962708e-02,-4.140414670109748840e-02
-3.549712523818016052e-02,-5.987054854631423950e-02,7.215812802314758301e-02,-9.372667223215103149e-02,-1.495565846562385559e-02,-1.042678058147430420e-01,-1.125259324908256531e-01,3.935108706355094910e-02,7.162842899560928345e-02,-1.418601572513580322e-01,-2.321629039943218231e-02,2.412737719714641571e-02,-9.873168170452117920e-02,7.920841127634048462e-02,-6.828149408102035522e-02,-5.969694256782531738e-02,9.621454030275344849e-02,-1.495033055543899536e-01,-3.060915321111679077e-02,3.097010962665081024e-02
7.081015408039093018e-02,-8.921507745981216431e-03,7.733922451734542847e-02,1.231554802507162094e-02,-3.828816488385200500e-02,-5.101196467876434326e-02,-5.589273944497108459e-02,-4.420094937086105347e-02,-2.816623635590076447e-02,-9.698443114757537842e-02,-1.334166973829269409e-01,-4.637783765792846680e-02,-1.112062670290470123e-02,-7.924819737672805786e-02,1.532747875899076462e-03,2.587860822677612305e-02,1.070771440863609314e-01,-1.864862628281116486e-02,-7.511818408966064453e-02,2.320433966815471649e-02
6.829777359962463379e-02,1.737685501575469971e-02,7.059773430228233337e-03,2.678620256483554840e-02,-5.241314694285392761e-02,-1.477144006639719009e-02,4.632168263196945190e-02,-4.636791348457336426e-02,-1.836461946368217468e-02,1.170752570033073425e-01,1.129883434623479843e-02,-9.403932839632034302e-02,-4.845443740487098694e-02,5.995708331465721130e-02,1.875807344913482666e-02,-6.247048825025558472e-02,-3.715857118368148804e-02,-3.800780326128005981e-02,9.146265219897031784e-04,7.841853797435760498e-02
4.805276542901992798e-02,-1.378447711467742920e-01,-4.802553728222846985e-02,-1.032000854611396790e-01,-5.190059170126914978e-02,1.640818826854228973e-02,-4.930429533123970032e-02,4.680137336254119873e-02,2.875493094325065613e-02,1.671435870230197906e-02,-8.178870193660259247e-03,-4.484136775135993958e-02,-7.702770829200744629e-02,-7.828986644744873047e-02,6.506110727787017822e-02,-6.944490224123001099e-02,1.972394809126853943e-02,-1.948411948978900909e-02,-1.781713217496871948e-02,-1.428090129047632217e-02
8.259426057338714600e-02,4.272416234016418457e-02,-1.284955628216266632e-02,-1.250346899032592773e-01,-4.773053154349327087e-02,-6.063784938305616379e-03,-3.036325238645076752e-02,3.466267883777618408e-02,-7.319678366184234619e-02,-7.287883758544921875e-02,-5.444427952170372009e-02,-9.453997947275638580e-03,2.570498920977115631e-02,6.381242419593036175e-04,-1.139951795339584351e-01,-2.235273830592632294e-02,-1.169957518577575684e-01,-9.644822031259536743e-02,6.664866954088211060e-02,2.901743724942207336e-02
1.096833348274230957e-01,3.244414180517196655e-02,-1.211961079388856888e-02,8.752061426639556885e-02,-5.149610340595245361e-02,-7.283882796764373779e-02,-5.052594095468521118e-02,-4.542890563607215881e-02,4.583058878779411316e-02,2.129865065217018127e-02,-7.325080689042806625e-03,-4.051514342427253723e-02,-6.986898928880691528e-02,-2.252000570297241211e-02,2.384383417665958405e-02,-5.100756511092185974e-02,-2.341091074049472809e-02,-1.268167700618505478e-02,6.223305687308311462e-02,3.504660353064537048e-02
-7.941893488168716431e-02,5.088775977492332458e-02,-1.146298553794622421e-02,-6.073732301592826843e-02,-1.934150420129299164e-02,1.038817241787910461e-01,9.567036479711532593e-02,-8.704528212547302246e-03,1.172220334410667419e-01,1.380422059446573257e-02,-1.385639607906341553e-01,-1.072128675878047943e-02,3.677536174654960632e-02,2.592271938920021057e-02,-4.335476085543632507e-02,-5.945374071598052979e-02,2.202682662755250931e-03,4.759225621819496155e-02,2.475825138390064240e-03,3.915418684482574463e-02
-6.521276384592056274e-02,5.766335409134626389e-03,3.400993719696998596e-02,1.226507686078548431e-02,-2.608877047896385193e-02,1.675422862172126770e-02,-2.143547311425209045e-02,8.987018465995788574e-02,5.073910579085350037e-04,2.930648252367973328e-02,1.599491760134696960e-02,-6.281303614377975464e-02,-5.424159020185470581e-02,-3.402405232191085815e-02,4.600980877876281738e-02,4.126557335257530212e-02,-3.907020017504692078e-02,-9.710423648357391357e-03,-2.300468087196350098e-02,2.742481604218482971e-02
-8.832796663045883179e-02,6.083237007260322571e-03,2.646289020776748657e-02,-1.248146872967481613e-02,-1.151342168450355530e-01,-8.996370888780802488e-05,1.221382096409797668e-01,-1.295221298933029175e-01,-3.838495537638664246e-02,9.714276343584060669e-02,1.001044735312461853e-02,-7.213923335075378418e-02,-1.082945382222533226e-03,-1.987729407846927643e-02,-1.188925653696060181e-01,6.515351682901382446e-02,5.909323692321777344e-02,1.395674198865890503e-01,-1.621059142053127289e-02,-6.859293580055236816e-02
4.080886393785476685e-02,-7.305142283439636230e-02,1.044239029288291931e-01,-4.750416800379753113e-02,-8.805642277002334595e-02,-5.752315372228622437e-02,1.471177954226732254e-02,-5.543070379644632339e-03,4.706963151693344116e-02,-7.388410717248916626e-02,2.674852870404720306e-02,5.148589983582496643e-02,3.684431314468383789e-02,-3.118271566927433014e-02,-2.436710707843303680e-02,-9.047015756368637085e-02,-1.188659295439720154e-01,9.486691653728485107e-02,-1.234686151146888733e-01,4.822195693850517273e-02
-3.889125073328614235e-03,9.197764098644256592e-03,-2.882192656397819519e-02,9.491874836385250092e-03,3.222522512078285217e-02,6.180189177393913269e-02,-5.457835271954536438e-03,-3.111450001597404480e-02,1.143245995044708252e-01,9.386460483074188232e-02,2.162793837487697601e-02,5.736303701996803284e-02,3.092805296182632446e-02,-6.736656278371810913e-02,5.241008102893829346e-02,5.800935998558998108e-02,2.670848974958062172e-03,2.452835254371166229e-02,2.491566911339759827e-02,-7.073304057121276855e-02
-4.152442887425422668e-02,4.007612168788909912e-02,-2.855768427252769470e-02,-2.485226467251777649e-02,3.888424485921859741e-02,-2.516794204711914062e-02,6.855028122663497925e-02,-1.089342171326279640e-03,1.418130397796630859e-01,-4.308426380157470703e-02,-4.826832190155982971e-02,2.025440149009227753e-02,7.057699561119079590e-02,1.359087675809860229e-01,2.147647924721240997e-02,-1.492316275835037231e-02,-7.295390218496322632e-02,-3.392611071467399597e-02,6.348245590925216675e-02,-4.282182082533836365e-02
6.334415636956691742e-03,1.417169719934463501e-02,-9.174209088087081909e-02,-8.161465823650360107e-02,1.261082440614700317e-01,-8.559183217585086823e-03,-3.702285885810852051e-02,1.953998394310474396e-02,-3.069356549531221390e-03,9.939992427825927734e-02,1.067795157432556152e-01,4.802558571100234985e-02,-1.010409519076347351e-01,1.016363352537155151e-01,4.900994151830673218e-02,-2.557530440390110016e-02,1.625957340002059937e-02,-5.104932934045791626e-02,1.001786515116691589e-01,-8.314383029937744141e-02
-7.598672062158584595e-02,-3.531796485185623169e-02,-8.019074797630310059e-02,1.217271201312541962e-02,-1.807240583002567291e-02,-2.397992089390754700e-02,-4.537287354469299316e-02,-1.570909284055233002e-03,-2.589979581534862518e-02,-8.445910364389419556e-02,2.858771383762359619e-02,1.137416064739227295e-01,3.852355107665061951e-02,5.759331583976745605e-02,1.375424712896347046e-01,8.538607507944107056e-02,-1.271279621869325638e-02,-8.227938413619995117e-02,-5.775020644068717957e-02,-6.546285748481750488e-02
3.981385380029678345e-02,-5.365259572863578796e-02,1.489394344389438629e-03,2.879866026341915131e-02,1.246308325789868832e-03,-2.355210669338703156e-02,-2.379903569817543030e-02,8.797166496515274048e-02,2.310588955879211426e-02,-4.575201123952865601e-02,7.250402867794036865e-02,7.057585753500461578e-03,-2.348529919981956482e-02,-7.391251623630523682e-02,5.161065235733985901e-02,1.854289881885051727e-02,3.723002225160598755e-02,1.394775956869125366e-01,8.318293839693069458e-02,-1.193395070731639862e-02
5.809793621301651001e-02,5.078862234950065613e-02,-6.827933341264724731e-02,8.599900454282760620e-02,2.104820869863033295e-02,-2.984359860420227051e-02,1.301999390125274658e-01,6.902192533016204834e-02,-3.733230754733085632e-02,-3.216388169676065445e-03,1.268007457256317139e-01,7.318138144910335541e-03,-1.165865175426006317e-02,5.906956735998392105e-03,-6.774938851594924927e-02,1.381665468215942383e-01,-5.445615854114294052e-03,7.166427094489336014e-03,-4.552441090345382690e-02,5.459678545594215393e-02
1.987030170857906342e-02,-6.119606643915176392e-02,-9.143231064081192017e-02,-1.646635308861732483e-02,-7.130017131567001343e-02,-6.204983592033386230e-02,-5.674346163868904114e-02,-9.894688613712787628e-03,2.635785192251205444e-02,2.763452241197228432e-03,3.692347928881645203e-02,4.218577593564987183e-02,-1.350319683551788330e-01,-7.914043217897415161e-02,-3.398204594850540161e-02,1.058875322341918945e-01,9.018755704164505005e-02,9.595339745283126831e-02,1.066260691732168198e-02,-3.684457764029502869e-02
1.204955428838729858e-01,-5.451006069779396057e-02,5.501748248934745789e-02,-8.784116059541702271e-02,-6.179794296622276306e-02,-6.601165235042572021e-02,2.670778706669807434e-02,1.603117734193801880e-01,-5.102790892124176025e-02,-1.501476299017667770e-02,7.608989626169204712e-02,-1.422717869281768799e-01,7.177306711673736572e-02,4.664498195052146912e-02,1.904330775141716003e-02,1.920808553695678711e-01,-7.769606262445449829e-02,9.957147389650344849e-02,1.056438758969306946e-01,8.183226920664310455e-03
4.909477382898330688e-02,-6.234050169587135315e-02,8.144409209489822388e-02,1.119441986083984375e-01,-3.934061527252197266e-02,9.881817549467086792e-02,3.191165253520011902e-02,2.340106219053268433e-01,-5.291525647044181824e-02,-7.694432046264410019e-03,9.489382803440093994e-02,-9.783076494932174683e-02,3.492299094796180725e-02,5.754322931170463562e-02,-3.667310997843742371e-02,8.113657683134078979e-02,-3.050113469362258911e-02,5.160807445645332336e-02,1.120593175292015076e-01,3.445638716220855713e-02
2.776284515857696533e-02,1.640344597399234772e-02,-1.005348637700080872e-01,5.410620477050542831e-03,4.497447237372398376e-02,6.496841460466384888e-02,-6.200583651661872864e-02,1.831577271223068237e-01,-2.540725097060203552e-02,2.997063100337982178e-02,7.753738015890121460e-02,6.901563704013824463e-02,7.696157693862915039e-02,6.108373031020164490e-02,-1.303142607212066650e-01,1.882796287536621094e-01,5.513685941696166992e-02,-1.432867813855409622e-02,4.901293292641639709e-02,-2.344886399805545807e-02
9.505015611648559570e-02,-1.962489821016788483e-02,-8.455800823867321014e-03,-4.142332822084426880e-02,9.641929715871810913e-02,1.346699148416519165e-02,1.881248503923416138e-01,1.555980145931243896e-01,-8.396103233098983765e-02,4.894859716296195984e-02,6.986404955387115479e-02,9.715059772133827209e-03,-1.865893369540572166e-03,-1.754677668213844299e-02,-6.613915413618087769e-02,2.904900908470153809e-02,-3.658737614750862122e-02,8.214046806097030640e-02,5.028576124459505081e-03,-5.498099327087402344e-02
2.030141837894916534e-02,9.614323824644088745e-02,2.641242370009422302e-02,-3.234371077269315720e-03,2.253589592874050140e-02,1.274555921554565430e-01,8.859191089868545532e-02,8.749820291996002197e-02,1.867632381618022919e-02,-5.159734562039375305e-02,6.504088640213012695e-02,1.174079347401857376e-02,4.115296527743339539e-02,-9.226455539464950562e-02,-5.672896280884742737e-02,3.918601665645837784e-03,-8.156853914260864258e-02,1.392546743154525757e-01,1.112841144204139709e-01,-5.258699879050254822e-02
8.682996779680252075e-02,-3.915141522884368896e-02,-8.382785320281982422e-02,8.026056736707687378e-02,1.062775589525699615e-02,2.762795239686965942e-02,1.575013808906078339e-02,1.402459591627120972e-01,2.774672396481037140e-02,-3.777052508667111397e-03,1.450324654579162598e-01,1.707150659058243036e-05,6.297022104263305664e-02,1.822884380817413330e-02,1.123098656535148621e-01,4.416688904166221619e-02,-1.520387455821037292e-02,-7.240618765354156494e-02,1.454016566276550293e-01,-1.115840114653110504e-02
-1.940834568813443184e-03,-4.931478202342987061e-02,9.369118511676788330e-02,1.126602143049240112e-01,4.588413983583450317e-02,3.744256868958473206e-02,-2.769256569445133209e-02,8.541576564311981201e-02,-1.352427750825881958e-01,1.158213838934898376e-01,6.344639509916305542e-02,-6.059112772345542908e-02,1.122243106365203857e-01,-4.504992067813873291e-02,1.061856225132942200e-01,-4.384799301624298096e-02,2.462613210082054138e-02,6.287951022386550903e-02,9.935851208865642548e-03,-1.156402081251144409e-01
1.048152893781661987e-01,-1.230371892452239990e-01,7.909633219242095947e-03,-5.960575118660926819e-02,1.550399512052536011e-02,5.879350006580352783e-03,1.857907697558403015e-02,9.391713142395019531e-02,-1.519027203321456909e-01,1.029028147459030151e-01,1.396260857582092285e-01,-8.587492629885673523e-03,1.727051660418510437e-02,1.746867783367633820e-02,1.280917227268218994e-01,1.038284450769424438e-01,9.050981700420379639e-02,-2.240242809057235718e-02,3.413816168904304504e-02,-6.271356251090764999e-03
1.771366447210311890e-01,-1.048035696148872375e-01,7.204017788171768188e-02,-9.435437619686126709e-02,2.832545526325702667e-02,1.473939605057239532e-02,-3.322343155741691589e-02,9.724335372447967529e-02,3.955475240945816040e-02,1.706495881080627441e-02,4.492866992950439453e-02,-6.614732742309570312e-02,9.143863618373870850e-02,-5.373306944966316223e-02,1.035767048597335815e-01,1.394390612840652466e-01,7.396501302719116211e-02,-5.001082271337509155e-02,-4.174437001347541809e-02,-5.892383679747581482e-02
1.703565940260887146e-02,1.159121003001928329e-02,8.700136095285415649e-02,-4.141521081328392029e-02,6.846679747104644775e-02,2.388039417564868927e-02,-7.863594591617584229e-02,2.273918129503726959e-02,-7.435152679681777954e-02,1.087487339973449707e-01,3.273400664329528809e-02,-2.192966453731060028e-02,4.919801279902458191e-02,-2.683099731802940369e-02,-4.497890174388885498e-02,-6.946447491645812988e-02,9.716732800006866455e-02,-3.379714116454124451e-02,-4.916100203990936279e-02,-4.575843364000320435e-02
8.506143093109130859e-02,-1.535361111164093018e-01,2.356466092169284821e-02,8.603047579526901245e-02,-1.265823841094970703e-01,4.351010918617248535e-02,-6.158274039626121521e-02,6.433562189340591431e-02,4.717860370874404907e-02,3.035101667046546936e-02,-1.477928310632705688e-01,5.007251352071762085e-02,-7.033940404653549194e-02,-1.911664381623268127e-02,-4.942406713962554932e-02,-3.216479346156120300e-02,1.201113387942314148e-01,3.267021849751472473e-02,-1.906910538673400879e-02,8.802862465381622314e-02
5.190260335803031921e-02,-1.939537469297647476e-03,6.687128543853759766e-02,-7.631112635135650635e-02,-1.152853071689605713e-01,-6.954239308834075928e-02,4.158109799027442932e-02,3.040367737412452698e-03,5.289605259895324707e-02,-4.526205733418464661e-02,6.357999145984649658e-02,2.568084374070167542e-02,6.665597110986709595e-02,3.281948715448379517e-02,4.865096136927604675e-02,1.965408772230148315e-02,-8.338483981788158417e-03,-4.708267748355865479e-02,-6.628271192312240601e-02,4.269296769052743912e-03
5.533341690897941589e-02,1.426708791404962540e-02,4.974041506648063660e-02,4.672296345233917236e-02,-5.127344653010368347e-02,-6.873825937509536743e-02,-3.796696290373802185e-02,-1.453588604927062988e-01,7.257200777530670166e-02,-9.064655750989913940e-02,-5.123516172170639038e-02,-7.722107693552970886e-03,-5.930302664637565613e-02,-2.945681661367416382e-02,2.730678021907806396e-02,1.064770817756652832e-01,1.303064730018377304e-02,-2.173581719398498535e-02,-7.972056418657302856e-02,1.303576380014419556e-01
-3.279342502355575562e-02,-2.716901339590549469e-02,1.396288424730300903e-01,2.879012189805507660e-02,1.160780712962150574e-01,-9.598347544670104980e-02,-1.058550402522087097e-01,4.193783272057771683e-03,-5.114776268601417542e-02,7.110982388257980347e-02,-1.050142720341682434e-01,4.680999740958213806e-02,-2.017864137887954712e-01,1.132268831133842468e-01,-3.886442282237112522e-04,-8.949318528175354004e-02,2.699336782097816467e-02,1.009240746498107910e-01,2.695353701710700989e-02,-7.765814196318387985e-03
6.132251024246215820e-02,-3.646666184067726135e-02,1.010857746005058289e-01,7.168704271316528320e-02,-7.687653601169586182e-02,-3.878260776400566101e-02,-8.162820339202880859e-02,3.667245432734489441e-02,-6.173230707645416260e-02,7.231286726891994476e-03,1.158160865306854248e-01,3.403411246836185455e-04,1.513964682817459106e-02,3.028169274330139160e-02,-1.320310588926076889e-02,-2.218384854495525360e-02,9.566233307123184204e-02,-1.829661801457405090e-02,-9.084010124206542969e-02,1.880474016070365906e-02
4.739679768681526184e-02,-3.964283689856529236e-02,3.202483803033828735e-02,5.602969601750373840e-02,8.697928488254547119e-02,-9.927447140216827393e-02,-6.614135950803756714e-02,5.288524553179740906e-03,1.055530831217765808e-02,-6.596600636839866638e-03,-1.004159171134233475e-02,-1.341438665986061096e-02,4.818766377866268158e-03,1.320805959403514862e-02,-6.857338012196123600e-04,8.477720618247985840e-02,-4.053164273500442505e-02,1.359385251998901367e-01,-1.299410909414291382e-01,7.083740085363388062e-02
-8.810514211654663086e-02,5.515354219824075699e-03,-1.951800286769866943e-02,3.741971403360366821e-02,-3.103264980018138885e-02,-1.033215150237083435e-01,-8.903774432837963104e-03,9.029829502105712891e-02,-1.167476642876863480e-02,-2.196490950882434845e-02,-8.184559643268585205e-02,9.637651965022087097e-03,1.669796183705329895e-02,6.294447928667068481e-02,-7.760889083147048950e-02,5.508056282997131348e-02,4.438951238989830017e-02,3.042421862483024597e-02,-2.643305249512195587e-02,-3.866079822182655334e-02
